<?xml version="1.0"?>
<opencv_storage>
<cascade>
  <stageType>BOOST</stageType>
  <featureType>HAAR</featureType>
  <height>24</height>
  <width>24</width>
  <stageParams>
    <boostType>GAB</boostType>
    <minHitRate>9.9500000476837158e-01</minHitRate>
    <maxFalseAlarm>5.0000000000000000e-01</maxFalseAlarm>
    <weightTrimRate>9.4999999999999996e-01</weightTrimRate>
    <maxDepth>1</maxDepth>
    <maxWeakCount>100</maxWeakCount></stageParams>
  <featureParams>
    <maxCatCount>0</maxCatCount>
    <featSize>1</featSize>
    <mode>BASIC</mode></featureParams>
  <stageNum>20</stageNum>
  <stages>
    <!-- stage 0 -->
    <_>
      <maxWeakCount>3</maxWeakCount>
      <stageThreshold>-6.1116009950637817e-01</stageThreshold>
      <weakClassifiers>
        <_>
          <internalNodes>
            0 -1 42 1.9655534625053406e-01</internalNodes>
          <leafValues>
            -8.2524269819259644e-01 9.4690263271331787e-01</leafValues></_>
        <_>
          <internalNodes>
            0 -1 50 -9.4142422080039978e-02</internalNodes>
          <leafValues>
            9.5435529947280884e-01 -7.4559402465820313e-01</leafValues></_>
        <_>
          <internalNodes>
            0 -1 5 1.8203338980674744e-01</internalNodes>
          <leafValues>
            -6.1825925111770630e-01 9.5967662334442139e-01</leafValues></_></weakClassifiers></_>
    <!-- stage 1 -->
    <_>
      <maxWeakCount>4</maxWeakCount>
      <stageThreshold>-1.1242762804031372e+00</stageThreshold>
      <weakClassifiers>
        <_>
          <internalNodes>
            0 -1 49 3.0415701866149902e-01</internalNodes>
          <leafValues>
            -5.9292036294937134e-01 8.6407768726348877e-01</leafValues></_>
        <_>
          <internalNodes>
            0 -1 117 -3.2710231840610504e-02</internalNodes>
          <leafValues>
            7.3247450590133667e-01 -6.8122988939285278e-01</leafValues></_>
        <_>
          <internalNodes>
            0 -1 10 2.8824263811111450e-01</internalNodes>
          <leafValues>
            -3.8031664490699768e-01 8.3238089084625244e-01</leafValues></_>
        <_>
          <internalNodes>
            0 -1 29 -8.3450824022293091e-02</internalNodes>
          <leafValues>
            5.3019064664840698e-01 -7.2479760646820068e-01</leafValues></_></weakClassifiers></_>
    <!-- stage 2 -->
    <_>
      <maxWeakCount>5</maxWeakCount>
      <stageThreshold>-5.1910114288330078e-01</stageThreshold>
      <weakClassifiers>
        <_>
          <internalNodes>
            0 -1 125 -2.6646438986063004e-02</internalNodes>
          <leafValues>
            8.3505153656005859e-01 -4.9579831957817078e-01</leafValues></_>
        <_>
          <internalNodes>
            0 -1 20 5.9587113559246063e-02</internalNodes>
          <leafValues>
            -7.3938262462615967e-01 6.1736553907394409e-01</leafValues></_>
        <_>
          <internalNodes>
            0 -1 4 -3.0973760876804590e-03</internalNodes>
          <leafValues>
            -7.7693569660186768e-01 4.4867497682571411e-01</leafValues></_>
        <_>
          <internalNodes>
            0 -1 16 2.6070050895214081e-02</internalNodes>
          <leafValues>
            -4.2364478111267090e-01 8.7373918294906616e-01</leafValues></_>
        <_>
          <internalNodes>
            0 -1 44 4.4749508379027247e-04</internalNodes>
          <leafValues>
            -5.1711022853851318e-01 6.9104963541030884e-01</leafValues></_></weakClassifiers></_>
    <!-- stage 3 -->
    <_>
      <maxWeakCount>5</maxWeakCount>
      <stageThreshold>-1.8228045105934143e-01</stageThreshold>
      <weakClassifiers>
        <_>
          <internalNodes>
            0 -1 115 -4.1010238230228424e-02</internalNodes>
          <leafValues>
            6.8067228794097900e-01 -6.0824739933013916e-01</leafValues></_>
        <_>
          <internalNodes>
            0 -1 27 4.7472422011196613e-03</internalNodes>
          <leafValues>
            -4.7062772512435913e-01 8.6102497577667236e-01</leafValues></_>
        <_>
          <internalNodes>
            0 -1 72 2.7501866221427917e-02</internalNodes>
          <leafValues>
            -5.1042592525482178e-01 6.2107324600219727e-01</leafValues></_>
        <_>
          <internalNodes>
            0 -1 109 2.7891786303371191e-03</internalNodes>
          <leafValues>
            -4.4793176651000977e-01 7.6880133152008057e-01</leafValues></_>
        <_>
          <internalNodes>
            0 -1 90 -3.1696556834504008e-04</internalNodes>
          <leafValues>
            7.3124867677688599e-01 -4.9327993392944336e-01</leafValues></_></weakClassifiers></_>
    <!-- stage 4 -->
    <_>
      <maxWeakCount>5</maxWeakCount>
      <stageThreshold>-9.0012186765670776e-01</stageThreshold>
      <weakClassifiers>
        <_>
          <internalNodes>
            0 -1 9 8.6690582334995270e-02</internalNodes>
          <leafValues>
            -3.9259257912635803e-01 9.2592591047286987e-01</leafValues></_>
        <_>
          <internalNodes>
            0 -1 15 -5.0794389098882675e-03</internalNodes>
          <leafValues>
            9.2836511135101318e-01 -3.0109602212905884e-01</leafValues></_>
        <_>
          <internalNodes>
            0 -1 64 -5.8625023812055588e-03</internalNodes>
          <leafValues>
            8.6029618978500366e-01 -3.3398362994194031e-01</leafValues></_>
        <_>
          <internalNodes>
            0 -1 3 3.1423624604940414e-02</internalNodes>
          <leafValues>
            -6.9958275556564331e-01 4.7120541334152222e-01</leafValues></_>
        <_>
          <internalNodes>
            0 -1 82 -4.1519841179251671e-03</internalNodes>
          <leafValues>
            8.4359985589981079e-01 -3.6714667081832886e-01</leafValues></_></weakClassifiers></_>
    <!-- stage 5 -->
    <_>
      <maxWeakCount>6</maxWeakCount>
      <stageThreshold>-6.3099020719528198e-01</stageThreshold>
      <weakClassifiers>
        <_>
          <internalNodes>
            0 -1 57 -6.5640568733215332e-02</internalNodes>
          <leafValues>
            4.6052631735801697e-01 -7.5000000000000000e-01</leafValues></_>
        <_>
          <internalNodes>
            0 -1 132 -6.3967285677790642e-03</internalNodes>
          <leafValues>
            6.9303852319717407e-01 -4.8754033446311951e-01</leafValues></_>
        <_>
          <internalNodes>
            0 -1 24 3.4531704150140285e-03</internalNodes>
          <leafValues>
            -3.6826208233833313e-01 7.2432976961135864e-01</leafValues></_>
        <_>
          <internalNodes>
            0 -1 47 9.6927932463586330e-04</internalNodes>
          <leafValues>
            -3.3996304869651794e-01 9.0814000368118286e-01</leafValues></_>
        <_>
          <internalNodes>
            0 -1 103 -8.1596620380878448e-02</internalNodes>
          <leafValues>
            6.1132448911666870e-01 -4.8935729265213013e-01</leafValues></_>
        <_>
          <internalNodes>
            0 -1 12 -3.4345039166510105e-03</internalNodes>
          <leafValues>
            8.1972098350524902e-01 -4.9898564815521240e-01</leafValues></_></weakClassifiers></_>
    <!-- stage 6 -->
    <_>
      <maxWeakCount>5</maxWeakCount>
      <stageThreshold>-3.6372104287147522e-01</stageThreshold>
      <weakClassifiers>
        <_>
          <internalNodes>
            0 -1 59 -5.7171732187271118e-02</internalNodes>
          <leafValues>
            7.1428573131561279e-01 -3.4400001168251038e-01</leafValues></_>
        <_>
          <internalNodes>
            0 -1 126 -3.0955780297517776e-02</internalNodes>
          <leafValues>
            6.5826040506362915e-01 -4.0134978294372559e-01</leafValues></_>
        <_>
          <internalNodes>
            0 -1 65 1.9506448879837990e-02</internalNodes>
          <leafValues>
            -9.2711335420608521e-01 2.3931540548801422e-01</leafValues></_>
        <_>
          <internalNodes>
            0 -1 14 2.2951539605855942e-02</internalNodes>
          <leafValues>
            -3.7308552861213684e-01 6.1321061849594116e-01</leafValues></_>
        <_>
          <internalNodes>
            0 -1 97 -4.6679368242621422e-03</internalNodes>
          <leafValues>
            7.1441030502319336e-01 -3.6407873034477234e-01</leafValues></_></weakClassifiers></_>
    <!-- stage 7 -->
    <_>
      <maxWeakCount>6</maxWeakCount>
      <stageThreshold>-1.0364040136337280e+00</stageThreshold>
      <weakClassifiers>
        <_>
          <internalNodes>
            0 -1 116 -4.9418725073337555e-02</internalNodes>
          <leafValues>
            6.1467891931533813e-01 -4.2056074738502502e-01</leafValues></_>
        <_>
          <internalNodes>
            0 -1 91 -8.1486953422427177e-04</internalNodes>
          <leafValues>
            7.6698136329650879e-01 -2.4730896949768066e-01</leafValues></_>
        <_>
          <internalNodes>
            0 -1 7 5.9391282498836517e-02</internalNodes>
          <leafValues>
            -6.6998124122619629e-01 3.3922487497329712e-01</leafValues></_>
        <_>
          <internalNodes>
            0 -1 114 2.2835943382233381e-03</internalNodes>
          <leafValues>
            -3.2577329874038696e-01 8.3585834503173828e-01</leafValues></_>
        <_>
          <internalNodes>
            0 -1 31 -3.9163613691926003e-03</internalNodes>
          <leafValues>
            9.2640382051467896e-01 -1.1628220975399017e-01</leafValues></_>
        <_>
          <internalNodes>
            0 -1 73 -2.2778625861974433e-05</internalNodes>
          <leafValues>
            5.3028839826583862e-01 -4.1812926530838013e-01</leafValues></_></weakClassifiers></_>
    <!-- stage 8 -->
    <_>
      <maxWeakCount>8</maxWeakCount>
      <stageThreshold>-5.5363333225250244e-01</stageThreshold>
      <weakClassifiers>
        <_>
          <internalNodes>
            0 -1 41 -8.4985777735710144e-02</internalNodes>
          <leafValues>
            7.7464789152145386e-01 -2.2758620977401733e-01</leafValues></_>
        <_>
          <internalNodes>
            0 -1 110 3.9961040019989014e-03</internalNodes>
          <leafValues>
            -6.0325658321380615e-01 3.1701803207397461e-01</leafValues></_>
        <_>
          <internalNodes>
            0 -1 45 -3.9869401603937149e-02</internalNodes>
          <leafValues>
            5.1877766847610474e-01 -3.4066975116729736e-01</leafValues></_>
        <_>
          <internalNodes>
            0 -1 99 8.9053891133517027e-04</internalNodes>
          <leafValues>
            -2.7080243825912476e-01 7.3828148841857910e-01</leafValues></_>
        <_>
          <internalNodes>
            0 -1 129 -5.8124982751905918e-04</internalNodes>
          <leafValues>
            8.1314218044281006e-01 -2.7306509017944336e-01</leafValues></_>
        <_>
          <internalNodes>
            0 -1 75 1.2149726971983910e-02</internalNodes>
          <leafValues>
            3.2102668285369873e-01 -9.2231237888336182e-01</leafValues></_>
        <_>
          <internalNodes>
            0 -1 28 3.4188935533165932e-03</internalNodes>
          <leafValues>
            -2.7807998657226563e-01 8.1322848796844482e-01</leafValues></_>
        <_>
          <internalNodes>
            0 -1 101 -9.1733504086732864e-03</internalNodes>
          <leafValues>
            -8.4347540140151978e-01 2.5935253500938416e-01</leafValues></_></weakClassifiers></_>
    <!-- stage 9 -->
    <_>
      <maxWeakCount>6</maxWeakCount>
      <stageThreshold>-6.2793731689453125e-01</stageThreshold>
      <weakClassifiers>
        <_>
          <internalNodes>
            0 -1 106 -2.9017895460128784e-02</internalNodes>
          <leafValues>
            3.9869281649589539e-01 -6.1904764175415039e-01</leafValues></_>
        <_>
          <internalNodes>
            0 -1 48 9.8120365291833878e-03</internalNodes>
          <leafValues>
            -3.1576383113861084e-01 7.9841542243957520e-01</leafValues></_>
        <_>
          <internalNodes>
            0 -1 2 1.1363263428211212e-01</internalNodes>
          <leafValues>
            -4.2199993133544922e-01 4.9313497543334961e-01</leafValues></_>
        <_>
          <internalNodes>
            0 -1 32 1.6802710015326738e-03</internalNodes>
          <leafValues>
            -3.2894471287727356e-01 5.6882464885711670e-01</leafValues></_>
        <_>
          <internalNodes>
            0 -1 33 1.9005739688873291e-01</internalNodes>
          <leafValues>
            -4.0259882807731628e-01 4.6251565217971802e-01</leafValues></_>
        <_>
          <internalNodes>
            0 -1 68 3.3593911211937666e-05</internalNodes>
          <leafValues>
            -4.1111317276954651e-01 5.4528266191482544e-01</leafValues></_></weakClassifiers></_>
    <!-- stage 10 -->
    <_>
      <maxWeakCount>8</maxWeakCount>
      <stageThreshold>-9.5627570152282715e-01</stageThreshold>
      <weakClassifiers>
        <_>
          <internalNodes>
            0 -1 17 6.2029776163399220e-03</internalNodes>
          <leafValues>
            -6.8181818723678589e-01 3.0232557654380798e-01</leafValues></_>
        <_>
          <internalNodes>
            0 -1 86 -1.7309479415416718e-02</internalNodes>
          <leafValues>
            6.5572154521942139e-01 -3.1118974089622498e-01</leafValues></_>
        <_>
          <internalNodes>
            0 -1 124 -1.7618185374885798e-03</internalNodes>
          <leafValues>
            6.7691701650619507e-01 -3.2327240705490112e-01</leafValues></_>
        <_>
          <internalNodes>
            0 -1 22 -1.7014485783874989e-03</internalNodes>
          <leafValues>
            6.0321241617202759e-01 -3.4571135044097900e-01</leafValues></_>
        <_>
          <internalNodes>
            0 -1 93 -1.1965548765147105e-04</internalNodes>
          <leafValues>
            7.1424949169158936e-01 -2.9315111041069031e-01</leafValues></_>
        <_>
          <internalNodes>
            0 -1 46 6.0200411826372147e-04</internalNodes>
          <leafValues>
            -2.5470325350761414e-01 8.5388088226318359e-01</leafValues></_>
        <_>
          <internalNodes>
            0 -1 77 -1.0041622444987297e-03</internalNodes>
          <leafValues>
            7.3030799627304077e-01 -3.2790571451187134e-01</leafValues></_>
        <_>
          <internalNodes>
            0 -1 136 4.6100717736408114e-04</internalNodes>
          <leafValues>
            -4.3306234478950500e-01 5.9733229875564575e-01</leafValues></_></weakClassifiers></_>
    <!-- stage 11 -->
    <_>
      <maxWeakCount>6</maxWeakCount>
      <stageThreshold>-2.6410853862762451e-01</stageThreshold>
      <weakClassifiers>
        <_>
          <internalNodes>
            0 -1 60 3.9195902645587921e-03</internalNodes>
          <leafValues>
            -3.2110092043876648e-01 5.3271025419235229e-01</leafValues></_>
        <_>
          <internalNodes>
            0 -1 8 -4.9042224418371916e-04</internalNodes>
          <leafValues>
            4.4857499003410339e-01 -3.6386898159980774e-01</leafValues></_>
        <_>
          <internalNodes>
            0 -1 63 1.0978911072015762e-02</internalNodes>
          <leafValues>
            1.9241550564765930e-01 -8.2221519947052002e-01</leafValues></_>
        <_>
          <internalNodes>
            0 -1 127 1.6131266020238400e-03</internalNodes>
          <leafValues>
            -2.9704597592353821e-01 5.7838934659957886e-01</leafValues></_>
        <_>
          <internalNodes>
            0 -1 1 2.6460858061909676e-03</internalNodes>
          <leafValues>
            -3.4828418493270874e-01 5.3463983535766602e-01</leafValues></_>
        <_>
          <internalNodes>
            0 -1 71 2.7861017733812332e-02</internalNodes>
          <leafValues>
            2.2215156257152557e-01 -8.0426138639450073e-01</leafValues></_></weakClassifiers></_>
    <!-- stage 12 -->
    <_>
      <maxWeakCount>9</maxWeakCount>
      <stageThreshold>-2.5440457463264465e-01</stageThreshold>
      <weakClassifiers>
        <_>
          <internalNodes>
            0 -1 39 -2.3362327367067337e-02</internalNodes>
          <leafValues>
            8.4905660152435303e-01 -1.4110429584980011e-01</leafValues></_>
        <_>
          <internalNodes>
            0 -1 36 -1.8785188440233469e-03</internalNodes>
          <leafValues>
            7.0705640316009521e-01 -2.3006595671176910e-01</leafValues></_>
        <_>
          <internalNodes>
            0 -1 120 -8.2746450789272785e-04</internalNodes>
          <leafValues>
            7.2231006622314453e-01 -2.3418089747428894e-01</leafValues></_>
        <_>
          <internalNodes>
            0 -1 0 3.0936900526285172e-02</internalNodes>
          <leafValues>
            -4.3881019949913025e-01 4.2838487029075623e-01</leafValues></_>
        <_>
          <internalNodes>
            0 -1 74 1.7321193590760231e-02</internalNodes>
          <leafValues>
            -6.9344013929367065e-01 3.0832865834236145e-01</leafValues></_>
        <_>
          <internalNodes>
            0 -1 51 -8.6787678301334381e-02</internalNodes>
          <leafValues>
            7.8449839353561401e-01 -2.4217477440834045e-01</leafValues></_>
        <_>
          <internalNodes>
            0 -1 96 2.8383755125105381e-04</internalNodes>
          <leafValues>
            -3.8723820447921753e-01 6.6837447881698608e-01</leafValues></_>
        <_>
          <internalNodes>
            0 -1 113 -8.1562600098550320e-04</internalNodes>
          <leafValues>
            6.6801810264587402e-01 -2.6409664750099182e-01</leafValues></_>
        <_>
          <internalNodes>
            0 -1 80 3.8604630390182137e-04</internalNodes>
          <leafValues>
            -3.2273888587951660e-01 5.5302047729492188e-01</leafValues></_></weakClassifiers></_>
    <!-- stage 13 -->
    <_>
      <maxWeakCount>6</maxWeakCount>
      <stageThreshold>-4.8036003112792969e-01</stageThreshold>
      <weakClassifiers>
        <_>
          <internalNodes>
            0 -1 62 9.7974725067615509e-03</internalNodes>
          <leafValues>
            4.2857143282890320e-01 -5.0000000000000000e-01</leafValues></_>
        <_>
          <internalNodes>
            0 -1 107 1.3914790004491806e-02</internalNodes>
          <leafValues>
            -3.7036651372909546e-01 4.4086858630180359e-01</leafValues></_>
        <_>
          <internalNodes>
            0 -1 66 2.9744451865553856e-02</internalNodes>
          <leafValues>
            -5.1920998096466064e-01 3.9553481340408325e-01</leafValues></_>
        <_>
          <internalNodes>
            0 -1 21 -2.4283402599394321e-03</internalNodes>
          <leafValues>
            -8.3502864837646484e-01 2.6157248020172119e-01</leafValues></_>
        <_>
          <internalNodes>
            0 -1 85 -1.3614518684335053e-04</internalNodes>
          <leafValues>
            3.5242250561714172e-01 -4.4450211524963379e-01</leafValues></_>
        <_>
          <internalNodes>
            0 -1 108 1.1359835043549538e-03</internalNodes>
          <leafValues>
            -6.1952334642410278e-01 2.9087454080581665e-01</leafValues></_></weakClassifiers></_>
    <!-- stage 14 -->
    <_>
      <maxWeakCount>8</maxWeakCount>
      <stageThreshold>-8.9159488677978516e-01</stageThreshold>
      <weakClassifiers>
        <_>
          <internalNodes>
            0 -1 19 -5.3786248899996281e-03</internalNodes>
          <leafValues>
            4.7008547186851501e-01 -3.3333334326744080e-01</leafValues></_>
        <_>
          <internalNodes>
            0 -1 88 -2.2831803653389215e-04</internalNodes>
          <leafValues>
            4.7761055827140808e-01 -3.4582173824310303e-01</leafValues></_>
        <_>
          <internalNodes>
            0 -1 30 -3.4027628600597382e-02</internalNodes>
          <leafValues>
            6.1365061998367310e-01 -2.2442215681076050e-01</leafValues></_>
        <_>
          <internalNodes>
            0 -1 53 2.3862923262640834e-04</internalNodes>
          <leafValues>
            -3.8501963019371033e-01 4.6966192126274109e-01</leafValues></_>
        <_>
          <internalNodes>
            0 -1 118 -3.2880686223506927e-02</internalNodes>
          <leafValues>
            7.0529979467391968e-01 -1.9040057063102722e-01</leafValues></_>
        <_>
          <internalNodes>
            0 -1 35 1.0093893855810165e-02</internalNodes>
          <leafValues>
            -6.4321297407150269e-01 3.2186752557754517e-01</leafValues></_>
        <_>
          <internalNodes>
            0 -1 84 1.9207838177680969e-01</internalNodes>
          <leafValues>
            -3.5726815462112427e-01 6.6918528079986572e-01</leafValues></_>
        <_>
          <internalNodes>
            0 -1 55 -8.4654660895466805e-04</internalNodes>
          <leafValues>
            6.0161954164505005e-01 -2.7289718389511108e-01</leafValues></_></weakClassifiers></_>
    <!-- stage 15 -->
    <_>
      <maxWeakCount>9</maxWeakCount>
      <stageThreshold>-4.8004475235939026e-01</stageThreshold>
      <weakClassifiers>
        <_>
          <internalNodes>
            0 -1 122 1.5282326785381883e-04</internalNodes>
          <leafValues>
            -3.4736841917037964e-01 4.5454546809196472e-01</leafValues></_>
        <_>
          <internalNodes>
            0 -1 43 6.4000710844993591e-02</internalNodes>
          <leafValues>
            -2.4459968507289886e-01 6.0483717918395996e-01</leafValues></_>
        <_>
          <internalNodes>
            0 -1 128 -5.3283054148778319e-04</internalNodes>
          <leafValues>
            5.0788044929504395e-01 -2.7879735827445984e-01</leafValues></_>
        <_>
          <internalNodes>
            0 -1 11 1.3740422204136848e-02</internalNodes>
          <leafValues>
            -2.2898809611797333e-01 7.2499912977218628e-01</leafValues></_>
        <_>
          <internalNodes>
            0 -1 56 7.0308344438672066e-03</internalNodes>
          <leafValues>
            2.7590641379356384e-01 -6.1439019441604614e-01</leafValues></_>
        <_>
          <internalNodes>
            0 -1 130 -8.4251202642917633e-03</internalNodes>
          <leafValues>
            5.7823950052261353e-01 -2.6914587616920471e-01</leafValues></_>
        <_>
          <internalNodes>
            0 -1 133 -2.8801059816032648e-03</internalNodes>
          <leafValues>
            4.9630796909332275e-01 -3.1821146607398987e-01</leafValues></_>
        <_>
          <internalNodes>
            0 -1 89 -8.8781223166733980e-04</internalNodes>
          <leafValues>
            5.3447407484054565e-01 -2.7639809250831604e-01</leafValues></_>
        <_>
          <internalNodes>
            0 -1 92 4.9251143354922533e-04</internalNodes>
          <leafValues>
            4.2088004946708679e-01 -4.2183595895767212e-01</leafValues></_></weakClassifiers></_>
    <!-- stage 16 -->
    <_>
      <maxWeakCount>7</maxWeakCount>
      <stageThreshold>-1.0143243074417114e+00</stageThreshold>
      <weakClassifiers>
        <_>
          <internalNodes>
            0 -1 134 -9.2646647244691849e-03</internalNodes>
          <leafValues>
            7.1014493703842163e-01 -1.8367347121238708e-01</leafValues></_>
        <_>
          <internalNodes>
            0 -1 37 -1.4229592680931091e-01</internalNodes>
          <leafValues>
            5.2628213167190552e-01 -3.4128582477569580e-01</leafValues></_>
        <_>
          <internalNodes>
            0 -1 6 -2.2703756112605333e-03</internalNodes>
          <leafValues>
            6.9936078786849976e-01 -2.1933938562870026e-01</leafValues></_>
        <_>
          <internalNodes>
            0 -1 87 9.8151147540193051e-05</internalNodes>
          <leafValues>
            -2.9681712388992310e-01 5.4056030511856079e-01</leafValues></_>
        <_>
          <internalNodes>
            0 -1 78 1.9195467233657837e-02</internalNodes>
          <leafValues>
            -3.8807815313339233e-01 4.4478312134742737e-01</leafValues></_>
        <_>
          <internalNodes>
            0 -1 76 -1.5930994413793087e-04</internalNodes>
          <leafValues>
            6.6866183280944824e-01 -2.3349200189113617e-01</leafValues></_>
        <_>
          <internalNodes>
            0 -1 40 7.8678759746253490e-04</internalNodes>
          <leafValues>
            -2.7033850550651550e-01 6.1774492263793945e-01</leafValues></_></weakClassifiers></_>
    <!-- stage 17 -->
    <_>
      <maxWeakCount>10</maxWeakCount>
      <stageThreshold>-6.9416004419326782e-01</stageThreshold>
      <weakClassifiers>
        <_>
          <internalNodes>
            0 -1 95 -5.2990168333053589e-03</internalNodes>
          <leafValues>
            8.0000001192092896e-01 -1.0843373835086823e-01</leafValues></_>
        <_>
          <internalNodes>
            0 -1 25 2.1261394023895264e-02</internalNodes>
          <leafValues>
            -1.3891288638114929e-01 8.1197154521942139e-01</leafValues></_>
        <_>
          <internalNodes>
            0 -1 131 -1.5696476912125945e-03</internalNodes>
          <leafValues>
            7.8958499431610107e-01 -1.7140486836433411e-01</leafValues></_>
        <_>
          <internalNodes>
            0 -1 102 -7.1027933154255152e-04</internalNodes>
          <leafValues>
            5.4837858676910400e-01 -2.5627639889717102e-01</leafValues></_>
        <_>
          <internalNodes>
            0 -1 98 -2.4034476373344660e-03</internalNodes>
          <leafValues>
            5.8299648761749268e-01 -2.6647770404815674e-01</leafValues></_>
        <_>
          <internalNodes>
            0 -1 105 5.3427601233124733e-03</internalNodes>
          <leafValues>
            2.0805864036083221e-01 -8.0815100669860840e-01</leafValues></_>
        <_>
          <internalNodes>
            0 -1 119 5.1097311079502106e-03</internalNodes>
          <leafValues>
            -1.6979016363620758e-01 8.8534408807754517e-01</leafValues></_>
        <_>
          <internalNodes>
            0 -1 83 -6.9804256781935692e-03</internalNodes>
          <leafValues>
            -8.3191359043121338e-01 2.3385554552078247e-01</leafValues></_>
        <_>
          <internalNodes>
            0 -1 38 -2.3217746056616306e-03</internalNodes>
          <leafValues>
            4.9953138828277588e-01 -3.7471187114715576e-01</leafValues></_>
        <_>
          <internalNodes>
            0 -1 94 -2.4084639735519886e-03</internalNodes>
          <leafValues>
            -5.3434765338897705e-01 3.4993341565132141e-01</leafValues></_></weakClassifiers></_>
    <!-- stage 18 -->
    <_>
      <maxWeakCount>12</maxWeakCount>
      <stageThreshold>-6.3718563318252563e-01</stageThreshold>
      <weakClassifiers>
        <_>
          <internalNodes>
            0 -1 54 8.9010065421462059e-03</internalNodes>
          <leafValues>
            3.8805970549583435e-01 -3.6585366725921631e-01</leafValues></_>
        <_>
          <internalNodes>
            0 -1 112 9.8156437277793884e-02</internalNodes>
          <leafValues>
            -1.9632102549076080e-01 6.2429922819137573e-01</leafValues></_>
        <_>
          <internalNodes>
            0 -1 13 2.4695191532373428e-03</internalNodes>
          <leafValues>
            -1.7257297039031982e-01 6.6667276620864868e-01</leafValues></_>
        <_>
          <internalNodes>
            0 -1 67 1.0958958417177200e-02</internalNodes>
          <leafValues>
            -2.7684271335601807e-01 6.0975193977355957e-01</leafValues></_>
        <_>
          <internalNodes>
            0 -1 58 -3.4624761901795864e-03</internalNodes>
          <leafValues>
            -8.3798289299011230e-01 2.0337510108947754e-01</leafValues></_>
        <_>
          <internalNodes>
            0 -1 104 -5.5709306616336107e-04</internalNodes>
          <leafValues>
            4.9289464950561523e-01 -3.8009652495384216e-01</leafValues></_>
        <_>
          <internalNodes>
            0 -1 121 2.4466905742883682e-03</internalNodes>
          <leafValues>
            -1.8440744280815125e-01 7.0520401000976563e-01</leafValues></_>
        <_>
          <internalNodes>
            0 -1 111 -6.6553358919918537e-04</internalNodes>
          <leafValues>
            7.1125692129135132e-01 -1.9902014732360840e-01</leafValues></_>
        <_>
          <internalNodes>
            0 -1 26 1.0218412615358829e-02</internalNodes>
          <leafValues>
            -1.5192843973636627e-01 9.0005481243133545e-01</leafValues></_>
        <_>
          <internalNodes>
            0 -1 70 2.1852388978004456e-02</internalNodes>
          <leafValues>
            3.4307110309600830e-01 -5.3552520275115967e-01</leafValues></_>
        <_>
          <internalNodes>
            0 -1 52 -5.0994084449484944e-04</internalNodes>
          <leafValues>
            5.5613893270492554e-01 -2.9937359690666199e-01</leafValues></_>
        <_>
          <internalNodes>
            0 -1 79 -2.5697136297821999e-03</internalNodes>
          <leafValues>
            -7.4760288000106812e-01 2.9447647929191589e-01</leafValues></_></weakClassifiers></_>
    <!-- stage 19 -->
    <_>
      <maxWeakCount>9</maxWeakCount>
      <stageThreshold>-8.0257767438888550e-01</stageThreshold>
      <weakClassifiers>
        <_>
          <internalNodes>
            0 -1 61 -1.2999298050999641e-02</internalNodes>
          <leafValues>
            -6.5853661298751831e-01 2.8000000119209290e-01</leafValues></_>
        <_>
          <internalNodes>
            0 -1 135 1.9365700427442789e-03</internalNodes>
          <leafValues>
            -1.7299954593181610e-01 8.0463349819183350e-01</leafValues></_>
        <_>
          <internalNodes>
            0 -1 123 -1.8760531384032220e-04</internalNodes>
          <leafValues>
            4.2431390285491943e-01 -3.3943343162536621e-01</leafValues></_>
        <_>
          <internalNodes>
            0 -1 69 -3.4254288038937375e-05</internalNodes>
          <leafValues>
            4.7088646888732910e-01 -3.7915694713592529e-01</leafValues></_>
        <_>
          <internalNodes>
            0 -1 18 -1.1866567656397820e-02</internalNodes>
          <leafValues>
            8.9367628097534180e-01 -1.5715864300727844e-01</leafValues></_>
        <_>
          <internalNodes>
            0 -1 34 1.2005163356661797e-02</internalNodes>
          <leafValues>
            -5.8923184871673584e-01 3.6296853423118591e-01</leafValues></_>
        <_>
          <internalNodes>
            0 -1 100 3.3911777427420020e-04</internalNodes>
          <leafValues>
            -4.1133382916450500e-01 4.8387449979782104e-01</leafValues></_>
        <_>
          <internalNodes>
            0 -1 23 -6.7820958793163300e-04</internalNodes>
          <leafValues>
            6.3207554817199707e-01 -2.7022889256477356e-01</leafValues></_>
        <_>
          <internalNodes>
            0 -1 81 -2.8830780647695065e-03</internalNodes>
          <leafValues>
            3.8692203164100647e-01 -5.2555412054061890e-01</leafValues></_></weakClassifiers></_></stages>
  <features>
    <_>
      <rects>
        <_>
          0 0 4 24 -1.</_>
        <_>
          2 0 2 24 2.</_></rects>
      <tilted>0</tilted></_>
    <_>
      <rects>
        <_>
          0 0 12 2 -1.</_>
        <_>
          0 0 6 1 2.</_>
        <_>
          6 1 6 1 2.</_></rects>
      <tilted>0</tilted></_>
    <_>
      <rects>
        <_>
          0 0 12 18 -1.</_>
        <_>
          6 0 6 18 2.</_></rects>
      <tilted>0</tilted></_>
    <_>
      <rects>
        <_>
          0 1 24 10 -1.</_>
        <_>
          8 1 8 10 3.</_></rects>
      <tilted>0</tilted></_>
    <_>
      <rects>
        <_>
          0 1 22 15 -1.</_>
        <_>
          0 6 22 5 3.</_></rects>
      <tilted>0</tilted></_>
    <_>
      <rects>
        <_>
          0 2 24 18 -1.</_>
        <_>
          8 2 8 18 3.</_></rects>
      <tilted>0</tilted></_>
    <_>
      <rects>
        <_>
          0 3 3 3 -1.</_>
        <_>
          0 4 3 1 3.</_></rects>
      <tilted>0</tilted></_>
    <_>
      <rects>
        <_>
          0 3 24 9 -1.</_>
        <_>
          8 3 8 9 3.</_></rects>
      <tilted>0</tilted></_>
    <_>
      <rects>
        <_>
          0 4 3 4 -1.</_>
        <_>
          1 4 1 4 3.</_></rects>
      <tilted>0</tilted></_>
    <_>
      <rects>
        <_>
          0 4 8 18 -1.</_>
        <_>
          4 4 4 18 2.</_></rects>
      <tilted>0</tilted></_>
    <_>
      <rects>
        <_>
          0 4 24 15 -1.</_>
        <_>
          8 4 8 15 3.</_></rects>
      <tilted>0</tilted></_>
    <_>
      <rects>
        <_>
          0 6 6 4 -1.</_>
        <_>
          2 6 2 4 3.</_></rects>
      <tilted>0</tilted></_>
    <_>
      <rects>
        <_>
          0 7 3 9 -1.</_>
        <_>
          1 7 1 9 3.</_></rects>
      <tilted>0</tilted></_>
    <_>
      <rects>
        <_>
          0 8 3 3 -1.</_>
        <_>
          0 9 3 1 3.</_></rects>
      <tilted>0</tilted></_>
    <_>
      <rects>
        <_>
          0 8 9 7 -1.</_>
        <_>
          3 8 3 7 3.</_></rects>
      <tilted>0</tilted></_>
    <_>
      <rects>
        <_>
          0 9 2 14 -1.</_>
        <_>
          0 9 1 7 2.</_>
        <_>
          1 16 1 7 2.</_></rects>
      <tilted>0</tilted></_>
    <_>
      <rects>
        <_>
          0 9 6 6 -1.</_>
        <_>
          3 9 3 6 2.</_></rects>
      <tilted>0</tilted></_>
    <_>
      <rects>
        <_>
          0 9 12 8 -1.</_>
        <_>
          6 9 6 8 2.</_></rects>
      <tilted>0</tilted></_>
    <_>
      <rects>
        <_>
          0 10 2 14 -1.</_>
        <_>
          0 10 1 7 2.</_>
        <_>
          1 17 1 7 2.</_></rects>
      <tilted>0</tilted></_>
    <_>
      <rects>
        <_>
          0 11 4 10 -1.</_>
        <_>
          0 11 2 5 2.</_>
        <_>
          2 16 2 5 2.</_></rects>
      <tilted>0</tilted></_>
    <_>
      <rects>
        <_>
          0 12 24 9 -1.</_>
        <_>
          8 12 8 9 3.</_></rects>
      <tilted>0</tilted></_>
    <_>
      <rects>
        <_>
          0 13 14 4 -1.</_>
        <_>
          7 13 7 4 2.</_></rects>
      <tilted>0</tilted></_>
    <_>
      <rects>
        <_>
          0 17 3 6 -1.</_>
        <_>
          1 17 1 6 3.</_></rects>
      <tilted>0</tilted></_>
    <_>
      <rects>
        <_>
          0 20 3 1 -1.</_>
        <_>
          1 20 1 1 3.</_></rects>
      <tilted>0</tilted></_>
    <_>
      <rects>
        <_>
          1 0 4 6 -1.</_>
        <_>
          1 0 2 3 2.</_>
        <_>
          3 3 2 3 2.</_></rects>
      <tilted>0</tilted></_>
    <_>
      <rects>
        <_>
          1 0 14 4 -1.</_>
        <_>
          1 0 7 2 2.</_>
        <_>
          8 2 7 2 2.</_></rects>
      <tilted>0</tilted></_>
    <_>
      <rects>
        <_>
          1 0 20 2 -1.</_>
        <_>
          1 0 10 1 2.</_>
        <_>
          11 1 10 1 2.</_></rects>
      <tilted>0</tilted></_>
    <_>
      <rects>
        <_>
          1 5 2 10 -1.</_>
        <_>
          2 5 1 10 2.</_></rects>
      <tilted>0</tilted></_>
    <_>
      <rects>
        <_>
          1 13 3 3 -1.</_>
        <_>
          2 13 1 3 3.</_></rects>
      <tilted>0</tilted></_>
    <_>
      <rects>
        <_>
          1 14 18 10 -1.</_>
        <_>
          1 19 18 5 2.</_></rects>
      <tilted>0</tilted></_>
    <_>
      <rects>
        <_>
          1 18 18 6 -1.</_>
        <_>
          1 20 18 2 3.</_></rects>
      <tilted>0</tilted></_>
    <_>
      <rects>
        <_>
          1 21 10 2 -1.</_>
        <_>
          1 21 5 1 2.</_>
        <_>
          6 22 5 1 2.</_></rects>
      <tilted>0</tilted></_>
    <_>
      <rects>
        <_>
          2 0 2 6 -1.</_>
        <_>
          2 2 2 2 3.</_></rects>
      <tilted>0</tilted></_>
    <_>
      <rects>
        <_>
          2 0 12 24 -1.</_>
        <_>
          2 8 12 8 3.</_></rects>
      <tilted>0</tilted></_>
    <_>
      <rects>
        <_>
          2 1 4 23 -1.</_>
        <_>
          4 1 2 23 2.</_></rects>
      <tilted>0</tilted></_>
    <_>
      <rects>
        <_>
          2 9 10 11 -1.</_>
        <_>
          7 9 5 11 2.</_></rects>
      <tilted>0</tilted></_>
    <_>
      <rects>
        <_>
          2 10 3 5 -1.</_>
        <_>
          3 10 1 5 3.</_></rects>
      <tilted>0</tilted></_>
    <_>
      <rects>
        <_>
          2 12 13 12 -1.</_>
        <_>
          2 18 13 6 2.</_></rects>
      <tilted>0</tilted></_>
    <_>
      <rects>
        <_>
          2 13 1 9 -1.</_>
        <_>
          2 16 1 3 3.</_></rects>
      <tilted>0</tilted></_>
    <_>
      <rects>
        <_>
          2 16 8 8 -1.</_>
        <_>
          2 16 4 4 2.</_>
        <_>
          6 20 4 4 2.</_></rects>
      <tilted>0</tilted></_>
    <_>
      <rects>
        <_>
          2 18 2 6 -1.</_>
        <_>
          2 18 1 3 2.</_>
        <_>
          3 21 1 3 2.</_></rects>
      <tilted>0</tilted></_>
    <_>
      <rects>
        <_>
          2 18 18 6 -1.</_>
        <_>
          2 21 18 3 2.</_></rects>
      <tilted>0</tilted></_>
    <_>
      <rects>
        <_>
          3 0 19 24 -1.</_>
        <_>
          3 8 19 8 3.</_></rects>
      <tilted>0</tilted></_>
    <_>
      <rects>
        <_>
          3 3 3 21 -1.</_>
        <_>
          3 10 3 7 3.</_></rects>
      <tilted>0</tilted></_>
    <_>
      <rects>
        <_>
          3 4 2 2 -1.</_>
        <_>
          3 4 1 1 2.</_>
        <_>
          4 5 1 1 2.</_></rects>
      <tilted>0</tilted></_>
    <_>
      <rects>
        <_>
          3 11 4 12 -1.</_>
        <_>
          3 17 4 6 2.</_></rects>
      <tilted>0</tilted></_>
    <_>
      <rects>
        <_>
          4 1 2 1 -1.</_>
        <_>
          5 1 1 1 2.</_></rects>
      <tilted>0</tilted></_>
    <_>
      <rects>
        <_>
          5 0 1 3 -1.</_>
        <_>
          5 1 1 1 3.</_></rects>
      <tilted>0</tilted></_>
    <_>
      <rects>
        <_>
          5 0 3 9 -1.</_>
        <_>
          5 3 3 3 3.</_></rects>
      <tilted>0</tilted></_>
    <_>
      <rects>
        <_>
          5 0 18 24 -1.</_>
        <_>
          5 8 18 8 3.</_></rects>
      <tilted>0</tilted></_>
    <_>
      <rects>
        <_>
          5 10 12 14 -1.</_>
        <_>
          5 17 12 7 2.</_></rects>
      <tilted>0</tilted></_>
    <_>
      <rects>
        <_>
          5 18 12 6 -1.</_>
        <_>
          5 21 12 3 2.</_></rects>
      <tilted>0</tilted></_>
    <_>
      <rects>
        <_>
          6 0 2 2 -1.</_>
        <_>
          6 0 1 1 2.</_>
        <_>
          7 1 1 1 2.</_></rects>
      <tilted>0</tilted></_>
    <_>
      <rects>
        <_>
          6 6 1 2 -1.</_>
        <_>
          6 7 1 1 2.</_></rects>
      <tilted>0</tilted></_>
    <_>
      <rects>
        <_>
          6 7 6 7 -1.</_>
        <_>
          9 7 3 7 2.</_></rects>
      <tilted>0</tilted></_>
    <_>
      <rects>
        <_>
          6 8 13 2 -1.</_>
        <_>
          6 9 13 1 2.</_></rects>
      <tilted>0</tilted></_>
    <_>
      <rects>
        <_>
          6 9 6 8 -1.</_>
        <_>
          6 13 6 4 2.</_></rects>
      <tilted>0</tilted></_>
    <_>
      <rects>
        <_>
          6 10 10 14 -1.</_>
        <_>
          6 17 10 7 2.</_></rects>
      <tilted>0</tilted></_>
    <_>
      <rects>
        <_>
          6 13 18 1 -1.</_>
        <_>
          12 13 6 1 3.</_></rects>
      <tilted>0</tilted></_>
    <_>
      <rects>
        <_>
          6 17 12 6 -1.</_>
        <_>
          6 20 12 3 2.</_></rects>
      <tilted>0</tilted></_>
    <_>
      <rects>
        <_>
          7 0 1 12 -1.</_>
        <_>
          7 4 1 4 3.</_></rects>
      <tilted>0</tilted></_>
    <_>
      <rects>
        <_>
          7 6 8 8 -1.</_>
        <_>
          7 6 4 4 2.</_>
        <_>
          11 10 4 4 2.</_></rects>
      <tilted>0</tilted></_>
    <_>
      <rects>
        <_>
          7 9 12 3 -1.</_>
        <_>
          11 9 4 3 3.</_></rects>
      <tilted>0</tilted></_>
    <_>
      <rects>
        <_>
          7 12 10 4 -1.</_>
        <_>
          7 12 5 2 2.</_>
        <_>
          12 14 5 2 2.</_></rects>
      <tilted>0</tilted></_>
    <_>
      <rects>
        <_>
          7 20 9 2 -1.</_>
        <_>
          7 21 9 1 2.</_></rects>
      <tilted>0</tilted></_>
    <_>
      <rects>
        <_>
          8 0 5 24 -1.</_>
        <_>
          8 8 5 8 3.</_></rects>
      <tilted>0</tilted></_>
    <_>
      <rects>
        <_>
          8 0 13 6 -1.</_>
        <_>
          8 3 13 3 2.</_></rects>
      <tilted>0</tilted></_>
    <_>
      <rects>
        <_>
          8 1 13 2 -1.</_>
        <_>
          8 2 13 1 2.</_></rects>
      <tilted>0</tilted></_>
    <_>
      <rects>
        <_>
          8 14 1 2 -1.</_>
        <_>
          8 15 1 1 2.</_></rects>
      <tilted>0</tilted></_>
    <_>
      <rects>
        <_>
          8 14 2 2 -1.</_>
        <_>
          8 14 1 1 2.</_>
        <_>
          9 15 1 1 2.</_></rects>
      <tilted>0</tilted></_>
    <_>
      <rects>
        <_>
          8 14 12 5 -1.</_>
        <_>
          12 14 4 5 3.</_></rects>
      <tilted>0</tilted></_>
    <_>
      <rects>
        <_>
          9 0 12 17 -1.</_>
        <_>
          15 0 6 17 2.</_></rects>
      <tilted>0</tilted></_>
    <_>
      <rects>
        <_>
          9 0 9 8 -1.</_>
        <_>
          9 4 9 4 2.</_></rects>
      <tilted>0</tilted></_>
    <_>
      <rects>
        <_>
          9 1 2 1 -1.</_>
        <_>
          10 1 1 1 2.</_></rects>
      <tilted>0</tilted></_>
    <_>
      <rects>
        <_>
          9 7 15 6 -1.</_>
        <_>
          14 7 5 6 3.</_></rects>
      <tilted>0</tilted></_>
    <_>
      <rects>
        <_>
          9 10 10 4 -1.</_>
        <_>
          9 12 10 2 2.</_></rects>
      <tilted>0</tilted></_>
    <_>
      <rects>
        <_>
          10 4 2 2 -1.</_>
        <_>
          10 5 2 1 2.</_></rects>
      <tilted>0</tilted></_>
    <_>
      <rects>
        <_>
          10 8 2 6 -1.</_>
        <_>
          10 10 2 2 3.</_></rects>
      <tilted>0</tilted></_>
    <_>
      <rects>
        <_>
          10 8 12 5 -1.</_>
        <_>
          14 8 4 5 3.</_></rects>
      <tilted>0</tilted></_>
    <_>
      <rects>
        <_>
          10 9 8 2 -1.</_>
        <_>
          10 10 8 1 2.</_></rects>
      <tilted>0</tilted></_>
    <_>
      <rects>
        <_>
          10 14 2 4 -1.</_>
        <_>
          10 14 1 2 2.</_>
        <_>
          11 16 1 2 2.</_></rects>
      <tilted>0</tilted></_>
    <_>
      <rects>
        <_>
          10 18 9 2 -1.</_>
        <_>
          10 19 9 1 2.</_></rects>
      <tilted>0</tilted></_>
    <_>
      <rects>
        <_>
          10 19 6 3 -1.</_>
        <_>
          10 20 6 1 3.</_></rects>
      <tilted>0</tilted></_>
    <_>
      <rects>
        <_>
          11 5 3 14 -1.</_>
        <_>
          12 5 1 14 3.</_></rects>
      <tilted>0</tilted></_>
    <_>
      <rects>
        <_>
          11 6 13 18 -1.</_>
        <_>
          11 12 13 6 3.</_></rects>
      <tilted>0</tilted></_>
    <_>
      <rects>
        <_>
          11 7 2 17 -1.</_>
        <_>
          12 7 1 17 2.</_></rects>
      <tilted>0</tilted></_>
    <_>
      <rects>
        <_>
          11 8 8 12 -1.</_>
        <_>
          11 8 4 6 2.</_>
        <_>
          15 14 4 6 2.</_></rects>
      <tilted>0</tilted></_>
    <_>
      <rects>
        <_>
          11 14 2 2 -1.</_>
        <_>
          11 14 1 1 2.</_>
        <_>
          12 15 1 1 2.</_></rects>
      <tilted>0</tilted></_>
    <_>
      <rects>
        <_>
          11 16 3 2 -1.</_>
        <_>
          12 16 1 2 3.</_></rects>
      <tilted>0</tilted></_>
    <_>
      <rects>
        <_>
          11 18 8 2 -1.</_>
        <_>
          11 18 4 1 2.</_>
        <_>
          15 19 4 1 2.</_></rects>
      <tilted>0</tilted></_>
    <_>
      <rects>
        <_>
          11 21 3 1 -1.</_>
        <_>
          12 21 1 1 3.</_></rects>
      <tilted>0</tilted></_>
    <_>
      <rects>
        <_>
          12 0 2 2 -1.</_>
        <_>
          12 0 1 1 2.</_>
        <_>
          13 1 1 1 2.</_></rects>
      <tilted>0</tilted></_>
    <_>
      <rects>
        <_>
          12 6 2 8 -1.</_>
        <_>
          12 6 1 4 2.</_>
        <_>
          13 10 1 4 2.</_></rects>
      <tilted>0</tilted></_>
    <_>
      <rects>
        <_>
          12 8 1 3 -1.</_>
        <_>
          12 9 1 1 3.</_></rects>
      <tilted>0</tilted></_>
    <_>
      <rects>
        <_>
          12 14 2 4 -1.</_>
        <_>
          12 16 2 2 2.</_></rects>
      <tilted>0</tilted></_>
    <_>
      <rects>
        <_>
          12 21 5 3 -1.</_>
        <_>
          12 22 5 1 3.</_></rects>
      <tilted>0</tilted></_>
    <_>
      <rects>
        <_>
          13 0 2 1 -1.</_>
        <_>
          14 0 1 1 2.</_></rects>
      <tilted>0</tilted></_>
    <_>
      <rects>
        <_>
          13 0 2 6 -1.</_>
        <_>
          13 2 2 2 3.</_></rects>
      <tilted>0</tilted></_>
    <_>
      <rects>
        <_>
          13 0 3 3 -1.</_>
        <_>
          13 1 3 1 3.</_></rects>
      <tilted>0</tilted></_>
    <_>
      <rects>
        <_>
          13 1 1 3 -1.</_>
        <_>
          13 2 1 1 3.</_></rects>
      <tilted>0</tilted></_>
    <_>
      <rects>
        <_>
          13 7 3 2 -1.</_>
        <_>
          13 8 3 1 2.</_></rects>
      <tilted>0</tilted></_>
    <_>
      <rects>
        <_>
          13 10 5 4 -1.</_>
        <_>
          13 12 5 2 2.</_></rects>
      <tilted>0</tilted></_>
    <_>
      <rects>
        <_>
          14 1 1 3 -1.</_>
        <_>
          14 2 1 1 3.</_></rects>
      <tilted>0</tilted></_>
    <_>
      <rects>
        <_>
          14 1 10 20 -1.</_>
        <_>
          19 1 5 20 2.</_></rects>
      <tilted>0</tilted></_>
    <_>
      <rects>
        <_>
          14 9 3 3 -1.</_>
        <_>
          15 9 1 3 3.</_></rects>
      <tilted>0</tilted></_>
    <_>
      <rects>
        <_>
          14 9 1 9 -1.</_>
        <_>
          14 12 1 3 3.</_></rects>
      <tilted>0</tilted></_>
    <_>
      <rects>
        <_>
          15 12 5 12 -1.</_>
        <_>
          15 18 5 6 2.</_></rects>
      <tilted>0</tilted></_>
    <_>
      <rects>
        <_>
          15 13 9 5 -1.</_>
        <_>
          18 13 3 5 3.</_></rects>
      <tilted>0</tilted></_>
    <_>
      <rects>
        <_>
          16 4 1 12 -1.</_>
        <_>
          16 8 1 4 3.</_></rects>
      <tilted>0</tilted></_>
    <_>
      <rects>
        <_>
          16 19 8 2 -1.</_>
        <_>
          16 19 4 1 2.</_>
        <_>
          20 20 4 1 2.</_></rects>
      <tilted>0</tilted></_>
    <_>
      <rects>
        <_>
          17 0 2 12 -1.</_>
        <_>
          17 6 2 6 2.</_></rects>
      <tilted>0</tilted></_>
    <_>
      <rects>
        <_>
          17 1 1 2 -1.</_>
        <_>
          17 2 1 1 2.</_></rects>
      <tilted>0</tilted></_>
    <_>
      <rects>
        <_>
          17 4 6 18 -1.</_>
        <_>
          17 10 6 6 3.</_></rects>
      <tilted>0</tilted></_>
    <_>
      <rects>
        <_>
          17 8 3 3 -1.</_>
        <_>
          18 8 1 3 3.</_></rects>
      <tilted>0</tilted></_>
    <_>
      <rects>
        <_>
          17 20 4 2 -1.</_>
        <_>
          17 20 2 1 2.</_>
        <_>
          19 21 2 1 2.</_></rects>
      <tilted>0</tilted></_>
    <_>
      <rects>
        <_>
          18 3 6 15 -1.</_>
        <_>
          21 3 3 15 2.</_></rects>
      <tilted>0</tilted></_>
    <_>
      <rects>
        <_>
          18 4 6 13 -1.</_>
        <_>
          21 4 3 13 2.</_></rects>
      <tilted>0</tilted></_>
    <_>
      <rects>
        <_>
          18 4 6 15 -1.</_>
        <_>
          21 4 3 15 2.</_></rects>
      <tilted>0</tilted></_>
    <_>
      <rects>
        <_>
          18 8 5 10 -1.</_>
        <_>
          18 13 5 5 2.</_></rects>
      <tilted>0</tilted></_>
    <_>
      <rects>
        <_>
          18 16 1 6 -1.</_>
        <_>
          18 18 1 2 3.</_></rects>
      <tilted>0</tilted></_>
    <_>
      <rects>
        <_>
          19 0 3 1 -1.</_>
        <_>
          20 0 1 1 3.</_></rects>
      <tilted>0</tilted></_>
    <_>
      <rects>
        <_>
          19 3 3 3 -1.</_>
        <_>
          20 3 1 3 3.</_></rects>
      <tilted>0</tilted></_>
    <_>
      <rects>
        <_>
          19 5 3 8 -1.</_>
        <_>
          20 5 1 8 3.</_></rects>
      <tilted>0</tilted></_>
    <_>
      <rects>
        <_>
          19 7 2 1 -1.</_>
        <_>
          20 7 1 1 2.</_></rects>
      <tilted>0</tilted></_>
    <_>
      <rects>
        <_>
          20 1 4 3 -1.</_>
        <_>
          20 2 4 1 3.</_></rects>
      <tilted>0</tilted></_>
    <_>
      <rects>
        <_>
          20 3 4 16 -1.</_>
        <_>
          22 3 2 16 2.</_></rects>
      <tilted>0</tilted></_>
    <_>
      <rects>
        <_>
          20 5 4 14 -1.</_>
        <_>
          22 5 2 14 2.</_></rects>
      <tilted>0</tilted></_>
    <_>
      <rects>
        <_>
          20 6 3 3 -1.</_>
        <_>
          21 6 1 3 3.</_></rects>
      <tilted>0</tilted></_>
    <_>
      <rects>
        <_>
          20 8 1 6 -1.</_>
        <_>
          20 10 1 2 3.</_></rects>
      <tilted>0</tilted></_>
    <_>
      <rects>
        <_>
          20 9 2 2 -1.</_>
        <_>
          20 9 1 1 2.</_>
        <_>
          21 10 1 1 2.</_></rects>
      <tilted>0</tilted></_>
    <_>
      <rects>
        <_>
          21 0 3 24 -1.</_>
        <_>
          22 0 1 24 3.</_></rects>
      <tilted>0</tilted></_>
    <_>
      <rects>
        <_>
          21 1 1 3 -1.</_>
        <_>
          21 2 1 1 3.</_></rects>
      <tilted>0</tilted></_>
    <_>
      <rects>
        <_>
          21 6 2 11 -1.</_>
        <_>
          22 6 1 11 2.</_></rects>
      <tilted>0</tilted></_>
    <_>
      <rects>
        <_>
          22 1 2 10 -1.</_>
        <_>
          22 1 1 5 2.</_>
        <_>
          23 6 1 5 2.</_></rects>
      <tilted>0</tilted></_>
    <_>
      <rects>
        <_>
          22 5 2 16 -1.</_>
        <_>
          23 5 1 16 2.</_></rects>
      <tilted>0</tilted></_>
    <_>
      <rects>
        <_>
          22 10 2 4 -1.</_>
        <_>
          22 10 1 2 2.</_>
        <_>
          23 12 1 2 2.</_></rects>
      <tilted>0</tilted></_>
    <_>
      <rects>
        <_>
          23 18 1 6 -1.</_>
        <_>
          23 21 1 3 2.</_></rects>
      <tilted>0</tilted></_></features></cascade>
</opencv_storage>
