<?xml version="1.0"?>
<opencv_storage>
<cascade>
  <stageType>BOOST</stageType>
  <featureType>HAAR</featureType>
  <height>50</height>
  <width>50</width>
  <stageParams>
    <boostType>GAB</boostType>
    <minHitRate>9.9500000476837158e-01</minHitRate>
    <maxFalseAlarm>5.0000000000000000e-01</maxFalseAlarm>
    <weightTrimRate>9.4999999999999996e-01</weightTrimRate>
    <maxDepth>1</maxDepth>
    <maxWeakCount>100</maxWeakCount></stageParams>
  <featureParams>
    <maxCatCount>0</maxCatCount>
    <featSize>1</featSize>
    <mode>BASIC</mode></featureParams>
  <stageNum>24</stageNum>
  <stages>
    <!-- stage 0 -->
    <_>
      <maxWeakCount>3</maxWeakCount>
      <stageThreshold>-6.3238549232482910e-01</stageThreshold>
      <weakClassifiers>
        <_>
          <internalNodes>
            0 -1 53 1.0841299593448639e-01</internalNodes>
          <leafValues>
            -8.2178217172622681e-01 9.1304349899291992e-01</leafValues></_>
        <_>
          <internalNodes>
            0 -1 101 -1.8418135121464729e-02</internalNodes>
          <leafValues>
            8.8476026058197021e-01 -7.4893200397491455e-01</leafValues></_>
        <_>
          <internalNodes>
            0 -1 45 -7.1107342839241028e-02</internalNodes>
          <leafValues>
            9.5107436180114746e-01 -6.9536352157592773e-01</leafValues></_></weakClassifiers></_>
    <!-- stage 1 -->
    <_>
      <maxWeakCount>5</maxWeakCount>
      <stageThreshold>-4.2124518752098083e-01</stageThreshold>
      <weakClassifiers>
        <_>
          <internalNodes>
            0 -1 29 2.5787219405174255e-02</internalNodes>
          <leafValues>
            -5.9259259700775146e-01 7.9629629850387573e-01</leafValues></_>
        <_>
          <internalNodes>
            0 -1 115 -3.4780487418174744e-02</internalNodes>
          <leafValues>
            8.1123381853103638e-01 -5.3330862522125244e-01</leafValues></_>
        <_>
          <internalNodes>
            0 -1 13 -5.4520540870726109e-03</internalNodes>
          <leafValues>
            -8.0235409736633301e-01 4.8519778251647949e-01</leafValues></_>
        <_>
          <internalNodes>
            0 -1 50 -2.4073068052530289e-02</internalNodes>
          <leafValues>
            8.0157190561294556e-01 -5.0290143489837646e-01</leafValues></_>
        <_>
          <internalNodes>
            0 -1 113 8.8723760563880205e-04</internalNodes>
          <leafValues>
            -5.7711935043334961e-01 7.2235965728759766e-01</leafValues></_></weakClassifiers></_>
    <!-- stage 2 -->
    <_>
      <maxWeakCount>4</maxWeakCount>
      <stageThreshold>-7.1647113561630249e-01</stageThreshold>
      <weakClassifiers>
        <_>
          <internalNodes>
            0 -1 118 -2.3016687482595444e-02</internalNodes>
          <leafValues>
            8.6915886402130127e-01 -6.5137612819671631e-01</leafValues></_>
        <_>
          <internalNodes>
            0 -1 7 1.1799370869994164e-02</internalNodes>
          <leafValues>
            -4.5487129688262939e-01 9.4482350349426270e-01</leafValues></_>
        <_>
          <internalNodes>
            0 -1 18 1.0565806925296783e-01</internalNodes>
          <leafValues>
            -5.6526976823806763e-01 8.1046169996261597e-01</leafValues></_>
        <_>
          <internalNodes>
            0 -1 9 -3.6695855669677258e-03</internalNodes>
          <leafValues>
            9.5504605770111084e-01 -3.5786956548690796e-01</leafValues></_></weakClassifiers></_>
    <!-- stage 3 -->
    <_>
      <maxWeakCount>5</maxWeakCount>
      <stageThreshold>-1.5388001501560211e-01</stageThreshold>
      <weakClassifiers>
        <_>
          <internalNodes>
            0 -1 14 1.8775382637977600e-01</internalNodes>
          <leafValues>
            -7.0526313781738281e-01 7.3553717136383057e-01</leafValues></_>
        <_>
          <internalNodes>
            0 -1 2 2.6449590921401978e-02</internalNodes>
          <leafValues>
            -5.1972317695617676e-01 8.8477116823196411e-01</leafValues></_>
        <_>
          <internalNodes>
            0 -1 93 1.1653952300548553e-02</internalNodes>
          <leafValues>
            -4.8592904210090637e-01 8.0723416805267334e-01</leafValues></_>
        <_>
          <internalNodes>
            0 -1 94 -2.9784755315631628e-03</internalNodes>
          <leafValues>
            6.7614698410034180e-01 -6.1364990472793579e-01</leafValues></_>
        <_>
          <internalNodes>
            0 -1 43 5.9041829081252217e-04</internalNodes>
          <leafValues>
            -4.9288052320480347e-01 8.8088840246200562e-01</leafValues></_></weakClassifiers></_>
    <!-- stage 4 -->
    <_>
      <maxWeakCount>3</maxWeakCount>
      <stageThreshold>-4.8338571190834045e-01</stageThreshold>
      <weakClassifiers>
        <_>
          <internalNodes>
            0 -1 119 -3.0052311718463898e-02</internalNodes>
          <leafValues>
            7.7981650829315186e-01 -5.8878505229949951e-01</leafValues></_>
        <_>
          <internalNodes>
            0 -1 20 1.9870167598128319e-03</internalNodes>
          <leafValues>
            -5.1884144544601440e-01 6.7136806249618530e-01</leafValues></_>
        <_>
          <internalNodes>
            0 -1 58 3.5005874931812286e-02</internalNodes>
          <leafValues>
            -5.6596875190734863e-01 6.7829394340515137e-01</leafValues></_></weakClassifiers></_>
    <!-- stage 5 -->
    <_>
      <maxWeakCount>5</maxWeakCount>
      <stageThreshold>-7.9555445909500122e-01</stageThreshold>
      <weakClassifiers>
        <_>
          <internalNodes>
            0 -1 124 -2.1813377737998962e-02</internalNodes>
          <leafValues>
            7.4000000953674316e-01 -4.4827586412429810e-01</leafValues></_>
        <_>
          <internalNodes>
            0 -1 31 -3.5630001220852137e-03</internalNodes>
          <leafValues>
            8.1699758768081665e-01 -3.7033435702323914e-01</leafValues></_>
        <_>
          <internalNodes>
            0 -1 23 5.8379420079290867e-03</internalNodes>
          <leafValues>
            -3.5148549079895020e-01 8.7307423353195190e-01</leafValues></_>
        <_>
          <internalNodes>
            0 -1 79 -2.6289420202374458e-04</internalNodes>
          <leafValues>
            8.4645569324493408e-01 -3.9376226067543030e-01</leafValues></_>
        <_>
          <internalNodes>
            0 -1 60 4.4592079939320683e-04</internalNodes>
          <leafValues>
            -4.5625624060630798e-01 8.6440223455429077e-01</leafValues></_></weakClassifiers></_>
    <!-- stage 6 -->
    <_>
      <maxWeakCount>4</maxWeakCount>
      <stageThreshold>-5.2161002159118652e-01</stageThreshold>
      <weakClassifiers>
        <_>
          <internalNodes>
            0 -1 128 -1.0916567407548428e-02</internalNodes>
          <leafValues>
            6.3793104887008667e-01 -5.1999998092651367e-01</leafValues></_>
        <_>
          <internalNodes>
            0 -1 10 -5.8722877874970436e-03</internalNodes>
          <leafValues>
            7.7596795558929443e-01 -3.4803462028503418e-01</leafValues></_>
        <_>
          <internalNodes>
            0 -1 26 -7.2644324973225594e-04</internalNodes>
          <leafValues>
            7.8800594806671143e-01 -3.9487588405609131e-01</leafValues></_>
        <_>
          <internalNodes>
            0 -1 90 -1.1146300472319126e-02</internalNodes>
          <leafValues>
            8.3003079891204834e-01 -3.8270211219787598e-01</leafValues></_></weakClassifiers></_>
    <!-- stage 7 -->
    <_>
      <maxWeakCount>4</maxWeakCount>
      <stageThreshold>-3.6720222234725952e-01</stageThreshold>
      <weakClassifiers>
        <_>
          <internalNodes>
            0 -1 52 -3.3638390596024692e-04</internalNodes>
          <leafValues>
            7.5999999046325684e-01 -2.4822695553302765e-01</leafValues></_>
        <_>
          <internalNodes>
            0 -1 81 -3.5713682882487774e-03</internalNodes>
          <leafValues>
            7.4846506118774414e-01 -2.8501775860786438e-01</leafValues></_>
        <_>
          <internalNodes>
            0 -1 63 -7.2050717426463962e-04</internalNodes>
          <leafValues>
            6.8743216991424561e-01 -4.1051363945007324e-01</leafValues></_>
        <_>
          <internalNodes>
            0 -1 134 -1.2655211612582207e-03</internalNodes>
          <leafValues>
            7.0405566692352295e-01 -4.3167081475257874e-01</leafValues></_></weakClassifiers></_>
    <!-- stage 8 -->
    <_>
      <maxWeakCount>6</maxWeakCount>
      <stageThreshold>-3.9546430110931396e-01</stageThreshold>
      <weakClassifiers>
        <_>
          <internalNodes>
            0 -1 72 -9.4627246260643005e-02</internalNodes>
          <leafValues>
            5.9663867950439453e-01 -5.0515460968017578e-01</leafValues></_>
        <_>
          <internalNodes>
            0 -1 64 1.4584945747628808e-03</internalNodes>
          <leafValues>
            -3.8025024533271790e-01 7.2511076927185059e-01</leafValues></_>
        <_>
          <internalNodes>
            0 -1 12 6.5410941839218140e-02</internalNodes>
          <leafValues>
            -4.1097971796989441e-01 5.6613981723785400e-01</leafValues></_>
        <_>
          <internalNodes>
            0 -1 112 -1.1411619925638661e-04</internalNodes>
          <leafValues>
            7.5805580615997314e-01 -4.2788693308830261e-01</leafValues></_>
        <_>
          <internalNodes>
            0 -1 6 -1.1488825839478523e-04</internalNodes>
          <leafValues>
            6.5068858861923218e-01 -3.6989805102348328e-01</leafValues></_>
        <_>
          <internalNodes>
            0 -1 75 2.0058950758539140e-04</internalNodes>
          <leafValues>
            -3.8020753860473633e-01 7.3143559694290161e-01</leafValues></_></weakClassifiers></_>
    <!-- stage 9 -->
    <_>
      <maxWeakCount>7</maxWeakCount>
      <stageThreshold>-4.5247915387153625e-01</stageThreshold>
      <weakClassifiers>
        <_>
          <internalNodes>
            0 -1 3 4.4684797525405884e-02</internalNodes>
          <leafValues>
            -3.2258063554763794e-01 6.7391306161880493e-01</leafValues></_>
        <_>
          <internalNodes>
            0 -1 129 1.4698283746838570e-02</internalNodes>
          <leafValues>
            -2.7103397250175476e-01 8.3642834424972534e-01</leafValues></_>
        <_>
          <internalNodes>
            0 -1 35 2.1613368880935013e-04</internalNodes>
          <leafValues>
            -2.8252711892127991e-01 7.3761683702468872e-01</leafValues></_>
        <_>
          <internalNodes>
            0 -1 97 4.0248018922284245e-04</internalNodes>
          <leafValues>
            -3.6842411756515503e-01 6.5382152795791626e-01</leafValues></_>
        <_>
          <internalNodes>
            0 -1 131 -1.6742853447794914e-02</internalNodes>
          <leafValues>
            7.2538912296295166e-01 -3.4309867024421692e-01</leafValues></_>
        <_>
          <internalNodes>
            0 -1 89 4.3401061557233334e-03</internalNodes>
          <leafValues>
            -4.8761972784996033e-01 5.5814927816390991e-01</leafValues></_>
        <_>
          <internalNodes>
            0 -1 83 -2.0411232253536582e-04</internalNodes>
          <leafValues>
            6.0055941343307495e-01 -4.2585170269012451e-01</leafValues></_></weakClassifiers></_>
    <!-- stage 10 -->
    <_>
      <maxWeakCount>7</maxWeakCount>
      <stageThreshold>-5.2928793430328369e-01</stageThreshold>
      <weakClassifiers>
        <_>
          <internalNodes>
            0 -1 0 1.0621601343154907e-01</internalNodes>
          <leafValues>
            -4.4680851697921753e-01 5.2459013462066650e-01</leafValues></_>
        <_>
          <internalNodes>
            0 -1 126 -3.1802862882614136e-02</internalNodes>
          <leafValues>
            7.7107965946197510e-01 -3.0166125297546387e-01</leafValues></_>
        <_>
          <internalNodes>
            0 -1 105 -1.0755533003248274e-04</internalNodes>
          <leafValues>
            8.2542395591735840e-01 -2.6565691828727722e-01</leafValues></_>
        <_>
          <internalNodes>
            0 -1 40 -2.3607537150382996e-03</internalNodes>
          <leafValues>
            7.3226112127304077e-01 -3.5551476478576660e-01</leafValues></_>
        <_>
          <internalNodes>
            0 -1 65 3.0464413575828075e-03</internalNodes>
          <leafValues>
            -2.7633377909660339e-01 8.0524444580078125e-01</leafValues></_>
        <_>
          <internalNodes>
            0 -1 84 -3.0824833083897829e-03</internalNodes>
          <leafValues>
            4.8229676485061646e-01 -5.8662557601928711e-01</leafValues></_>
        <_>
          <internalNodes>
            0 -1 46 -5.1725329831242561e-04</internalNodes>
          <leafValues>
            9.2714887857437134e-01 -3.3700814843177795e-01</leafValues></_></weakClassifiers></_>
    <!-- stage 11 -->
    <_>
      <maxWeakCount>5</maxWeakCount>
      <stageThreshold>-2.4157120287418365e-01</stageThreshold>
      <weakClassifiers>
        <_>
          <internalNodes>
            0 -1 61 -5.0194431096315384e-03</internalNodes>
          <leafValues>
            4.1721853613853455e-01 -6.3076925277709961e-01</leafValues></_>
        <_>
          <internalNodes>
            0 -1 69 -4.6531852334737778e-02</internalNodes>
          <leafValues>
            6.4333236217498779e-01 -3.9664426445960999e-01</leafValues></_>
        <_>
          <internalNodes>
            0 -1 24 2.8534941375255585e-03</internalNodes>
          <leafValues>
            -2.8918504714965820e-01 8.0465036630630493e-01</leafValues></_>
        <_>
          <internalNodes>
            0 -1 114 -3.0714823515154421e-04</internalNodes>
          <leafValues>
            8.5151547193527222e-01 -3.0205568671226501e-01</leafValues></_>
        <_>
          <internalNodes>
            0 -1 57 3.8633656222373247e-03</internalNodes>
          <leafValues>
            3.3710640668869019e-01 -7.6880580186843872e-01</leafValues></_></weakClassifiers></_>
    <!-- stage 12 -->
    <_>
      <maxWeakCount>6</maxWeakCount>
      <stageThreshold>-2.5582426786422729e-01</stageThreshold>
      <weakClassifiers>
        <_>
          <internalNodes>
            0 -1 51 5.2844941616058350e-02</internalNodes>
          <leafValues>
            -5.3086417913436890e-01 4.8148149251937866e-01</leafValues></_>
        <_>
          <internalNodes>
            0 -1 32 -3.7060955946799368e-05</internalNodes>
          <leafValues>
            7.2974169254302979e-01 -3.3520686626434326e-01</leafValues></_>
        <_>
          <internalNodes>
            0 -1 4 8.5091769695281982e-02</internalNodes>
          <leafValues>
            -3.4109613299369812e-01 6.9055134057998657e-01</leafValues></_>
        <_>
          <internalNodes>
            0 -1 122 -2.0692911930382252e-03</internalNodes>
          <leafValues>
            6.2622010707855225e-01 -3.9156669378280640e-01</leafValues></_>
        <_>
          <internalNodes>
            0 -1 44 8.2492467481642962e-04</internalNodes>
          <leafValues>
            -2.1299894154071808e-01 8.7973624467849731e-01</leafValues></_>
        <_>
          <internalNodes>
            0 -1 135 -1.0563999239820987e-04</internalNodes>
          <leafValues>
            5.4356282949447632e-01 -4.6228852868080139e-01</leafValues></_></weakClassifiers></_>
    <!-- stage 13 -->
    <_>
      <maxWeakCount>6</maxWeakCount>
      <stageThreshold>-5.8627694845199585e-01</stageThreshold>
      <weakClassifiers>
        <_>
          <internalNodes>
            0 -1 49 -6.8479679524898529e-02</internalNodes>
          <leafValues>
            7.0297032594680786e-01 -4.2608696222305298e-01</leafValues></_>
        <_>
          <internalNodes>
            0 -1 28 -7.1537839248776436e-03</internalNodes>
          <leafValues>
            -4.8370504379272461e-01 4.3877395987510681e-01</leafValues></_>
        <_>
          <internalNodes>
            0 -1 102 -1.1026590073015541e-04</internalNodes>
          <leafValues>
            6.9603902101516724e-01 -3.5564136505126953e-01</leafValues></_>
        <_>
          <internalNodes>
            0 -1 27 4.0786154568195343e-04</internalNodes>
          <leafValues>
            -3.6160367727279663e-01 7.6061719655990601e-01</leafValues></_>
        <_>
          <internalNodes>
            0 -1 77 5.2733896300196648e-03</internalNodes>
          <leafValues>
            4.7934299707412720e-01 -5.5603241920471191e-01</leafValues></_>
        <_>
          <internalNodes>
            0 -1 48 -5.3111923625692725e-04</internalNodes>
          <leafValues>
            7.4729430675506592e-01 -3.7736690044403076e-01</leafValues></_></weakClassifiers></_>
    <!-- stage 14 -->
    <_>
      <maxWeakCount>6</maxWeakCount>
      <stageThreshold>-5.5383902788162231e-01</stageThreshold>
      <weakClassifiers>
        <_>
          <internalNodes>
            0 -1 95 -1.4376359060406685e-02</internalNodes>
          <leafValues>
            3.4939759969711304e-01 -7.2000002861022949e-01</leafValues></_>
        <_>
          <internalNodes>
            0 -1 1 -1.4583786251023412e-03</internalNodes>
          <leafValues>
            8.3331537246704102e-01 -2.9897350072860718e-01</leafValues></_>
        <_>
          <internalNodes>
            0 -1 15 4.0815450251102448e-02</internalNodes>
          <leafValues>
            -4.7232556343078613e-01 4.8074653744697571e-01</leafValues></_>
        <_>
          <internalNodes>
            0 -1 96 7.3008472099900246e-04</internalNodes>
          <leafValues>
            -4.8106312751770020e-01 5.2282387018203735e-01</leafValues></_>
        <_>
          <internalNodes>
            0 -1 110 5.0906073302030563e-03</internalNodes>
          <leafValues>
            -2.9706087708473206e-01 8.3624559640884399e-01</leafValues></_>
        <_>
          <internalNodes>
            0 -1 36 -8.7259635329246521e-03</internalNodes>
          <leafValues>
            7.7909040451049805e-01 -2.4137504398822784e-01</leafValues></_></weakClassifiers></_>
    <!-- stage 15 -->
    <_>
      <maxWeakCount>6</maxWeakCount>
      <stageThreshold>-5.6582415103912354e-01</stageThreshold>
      <weakClassifiers>
        <_>
          <internalNodes>
            0 -1 116 6.7602549679577351e-03</internalNodes>
          <leafValues>
            -2.3076923191547394e-01 7.5342464447021484e-01</leafValues></_>
        <_>
          <internalNodes>
            0 -1 98 -2.3870985023677349e-03</internalNodes>
          <leafValues>
            -7.4168866872787476e-01 3.3289700746536255e-01</leafValues></_>
        <_>
          <internalNodes>
            0 -1 92 1.2899701483547688e-02</internalNodes>
          <leafValues>
            -2.7019950747489929e-01 8.2110971212387085e-01</leafValues></_>
        <_>
          <internalNodes>
            0 -1 21 -3.7405762122943997e-04</internalNodes>
          <leafValues>
            6.6183024644851685e-01 -3.1095468997955322e-01</leafValues></_>
        <_>
          <internalNodes>
            0 -1 111 -3.6186515353620052e-04</internalNodes>
          <leafValues>
            5.9014701843261719e-01 -3.8197165727615356e-01</leafValues></_>
        <_>
          <internalNodes>
            0 -1 55 1.6297079622745514e-02</internalNodes>
          <leafValues>
            2.9517397284507751e-01 -9.1255587339401245e-01</leafValues></_></weakClassifiers></_>
    <!-- stage 16 -->
    <_>
      <maxWeakCount>6</maxWeakCount>
      <stageThreshold>-4.4144314527511597e-01</stageThreshold>
      <weakClassifiers>
        <_>
          <internalNodes>
            0 -1 99 -4.6477526426315308e-02</internalNodes>
          <leafValues>
            4.2281877994537354e-01 -6.1194032430648804e-01</leafValues></_>
        <_>
          <internalNodes>
            0 -1 39 -1.5213273582048714e-04</internalNodes>
          <leafValues>
            4.8092973232269287e-01 -4.4076788425445557e-01</leafValues></_>
        <_>
          <internalNodes>
            0 -1 59 4.2174960253760219e-04</internalNodes>
          <leafValues>
            -2.8910678625106812e-01 8.1780928373336792e-01</leafValues></_>
        <_>
          <internalNodes>
            0 -1 11 1.3374647125601768e-02</internalNodes>
          <leafValues>
            -3.1850513815879822e-01 6.4817291498184204e-01</leafValues></_>
        <_>
          <internalNodes>
            0 -1 22 -6.6316230222582817e-03</internalNodes>
          <leafValues>
            7.5679165124893188e-01 -3.2098808884620667e-01</leafValues></_>
        <_>
          <internalNodes>
            0 -1 37 -1.5520055603701621e-04</internalNodes>
          <leafValues>
            7.0688015222549438e-01 -3.4851062297821045e-01</leafValues></_></weakClassifiers></_>
    <!-- stage 17 -->
    <_>
      <maxWeakCount>6</maxWeakCount>
      <stageThreshold>-4.5671322941780090e-01</stageThreshold>
      <weakClassifiers>
        <_>
          <internalNodes>
            0 -1 123 -2.6989206671714783e-02</internalNodes>
          <leafValues>
            6.7500001192092896e-01 -2.3529411852359772e-01</leafValues></_>
        <_>
          <internalNodes>
            0 -1 85 -3.1868626829236746e-03</internalNodes>
          <leafValues>
            8.0077987909317017e-01 -2.0894475281238556e-01</leafValues></_>
        <_>
          <internalNodes>
            0 -1 104 2.0840067008975893e-05</internalNodes>
          <leafValues>
            -3.9450857043266296e-01 5.4141360521316528e-01</leafValues></_>
        <_>
          <internalNodes>
            0 -1 86 -1.9224148709326982e-03</internalNodes>
          <leafValues>
            6.2688577175140381e-01 -3.1853494048118591e-01</leafValues></_>
        <_>
          <internalNodes>
            0 -1 38 -3.2778480090200901e-05</internalNodes>
          <leafValues>
            4.9816009402275085e-01 -4.2965739965438843e-01</leafValues></_>
        <_>
          <internalNodes>
            0 -1 68 1.7491024918854237e-03</internalNodes>
          <leafValues>
            3.7782609462738037e-01 -7.3351317644119263e-01</leafValues></_></weakClassifiers></_>
    <!-- stage 18 -->
    <_>
      <maxWeakCount>7</maxWeakCount>
      <stageThreshold>-1.0825766324996948e+00</stageThreshold>
      <weakClassifiers>
        <_>
          <internalNodes>
            0 -1 120 3.4491215046728030e-05</internalNodes>
          <leafValues>
            -2.9133859276771545e-01 6.6292136907577515e-01</leafValues></_>
        <_>
          <internalNodes>
            0 -1 106 -4.5574545860290527e-02</internalNodes>
          <leafValues>
            3.8127043843269348e-01 -5.4014319181442261e-01</leafValues></_>
        <_>
          <internalNodes>
            0 -1 80 7.6291617006063461e-06</internalNodes>
          <leafValues>
            -3.5747656226158142e-01 5.8417516946792603e-01</leafValues></_>
        <_>
          <internalNodes>
            0 -1 73 6.1688455753028393e-04</internalNodes>
          <leafValues>
            -4.0785416960716248e-01 5.3375214338302612e-01</leafValues></_>
        <_>
          <internalNodes>
            0 -1 108 -1.0402090847492218e-03</internalNodes>
          <leafValues>
            -6.5200603008270264e-01 3.8575497269630432e-01</leafValues></_>
        <_>
          <internalNodes>
            0 -1 76 -6.9956431616446935e-06</internalNodes>
          <leafValues>
            4.9231582880020142e-01 -4.6026474237442017e-01</leafValues></_>
        <_>
          <internalNodes>
            0 -1 82 6.4465653849765658e-04</internalNodes>
          <leafValues>
            -3.6551427841186523e-01 6.1744475364685059e-01</leafValues></_></weakClassifiers></_>
    <!-- stage 19 -->
    <_>
      <maxWeakCount>7</maxWeakCount>
      <stageThreshold>-5.8161050081253052e-01</stageThreshold>
      <weakClassifiers>
        <_>
          <internalNodes>
            0 -1 34 -1.6908147931098938e-01</internalNodes>
          <leafValues>
            5.7281553745269775e-01 -3.2743361592292786e-01</leafValues></_>
        <_>
          <internalNodes>
            0 -1 136 -2.6615822207531892e-05</internalNodes>
          <leafValues>
            5.8518660068511963e-01 -3.8546305894851685e-01</leafValues></_>
        <_>
          <internalNodes>
            0 -1 78 -6.7789122113026679e-05</internalNodes>
          <leafValues>
            4.6442168951034546e-01 -4.2154255509376526e-01</leafValues></_>
        <_>
          <internalNodes>
            0 -1 133 6.0672400286421180e-04</internalNodes>
          <leafValues>
            -3.1333243846893311e-01 6.9271081686019897e-01</leafValues></_>
        <_>
          <internalNodes>
            0 -1 67 3.5099714295938611e-05</internalNodes>
          <leafValues>
            -2.4628856778144836e-01 6.9470196962356567e-01</leafValues></_>
        <_>
          <internalNodes>
            0 -1 107 -1.9260702538304031e-04</internalNodes>
          <leafValues>
            6.7310392856597900e-01 -3.1019231677055359e-01</leafValues></_>
        <_>
          <internalNodes>
            0 -1 117 4.2637292062863708e-04</internalNodes>
          <leafValues>
            -3.6357134580612183e-01 5.9658420085906982e-01</leafValues></_></weakClassifiers></_>
    <!-- stage 20 -->
    <_>
      <maxWeakCount>7</maxWeakCount>
      <stageThreshold>-4.0991473197937012e-01</stageThreshold>
      <weakClassifiers>
        <_>
          <internalNodes>
            0 -1 132 2.0969435572624207e-03</internalNodes>
          <leafValues>
            -1.3253012299537659e-01 8.7999999523162842e-01</leafValues></_>
        <_>
          <internalNodes>
            0 -1 87 6.7898975685238838e-03</internalNodes>
          <leafValues>
            -1.6213862597942352e-01 8.7381398677825928e-01</leafValues></_>
        <_>
          <internalNodes>
            0 -1 70 -1.1642990866675973e-03</internalNodes>
          <leafValues>
            6.1346483230590820e-01 -3.2777941226959229e-01</leafValues></_>
        <_>
          <internalNodes>
            0 -1 130 -1.9866158254444599e-03</internalNodes>
          <leafValues>
            5.4229724407196045e-01 -3.5665327310562134e-01</leafValues></_>
        <_>
          <internalNodes>
            0 -1 33 -1.9899632316082716e-03</internalNodes>
          <leafValues>
            6.8131732940673828e-01 -3.3419343829154968e-01</leafValues></_>
        <_>
          <internalNodes>
            0 -1 25 1.2816160917282104e-02</internalNodes>
          <leafValues>
            -7.1673494577407837e-01 3.6381512880325317e-01</leafValues></_>
        <_>
          <internalNodes>
            0 -1 91 4.8598898574709892e-03</internalNodes>
          <leafValues>
            -2.2007967531681061e-01 9.2502695322036743e-01</leafValues></_></weakClassifiers></_>
    <!-- stage 21 -->
    <_>
      <maxWeakCount>7</maxWeakCount>
      <stageThreshold>-3.1518459320068359e-01</stageThreshold>
      <weakClassifiers>
        <_>
          <internalNodes>
            0 -1 100 -1.1471216566860676e-03</internalNodes>
          <leafValues>
            -4.7368422150611877e-01 4.1428571939468384e-01</leafValues></_>
        <_>
          <internalNodes>
            0 -1 41 1.3164391566533595e-04</internalNodes>
          <leafValues>
            -5.7637679576873779e-01 3.1627535820007324e-01</leafValues></_>
        <_>
          <internalNodes>
            0 -1 109 3.7853294052183628e-03</internalNodes>
          <leafValues>
            -3.6665001511573792e-01 5.8563691377639771e-01</leafValues></_>
        <_>
          <internalNodes>
            0 -1 127 1.2669530697166920e-03</internalNodes>
          <leafValues>
            4.1647464036941528e-01 -5.8620387315750122e-01</leafValues></_>
        <_>
          <internalNodes>
            0 -1 19 -2.1727136336266994e-03</internalNodes>
          <leafValues>
            7.9226219654083252e-01 -3.4625589847564697e-01</leafValues></_>
        <_>
          <internalNodes>
            0 -1 47 1.6160593077074736e-05</internalNodes>
          <leafValues>
            -4.0266716480255127e-01 6.0486227273941040e-01</leafValues></_>
        <_>
          <internalNodes>
            0 -1 42 1.2627646792680025e-03</internalNodes>
          <leafValues>
            -2.9625561833381653e-01 7.5013548135757446e-01</leafValues></_></weakClassifiers></_>
    <!-- stage 22 -->
    <_>
      <maxWeakCount>7</maxWeakCount>
      <stageThreshold>-5.3715926408767700e-01</stageThreshold>
      <weakClassifiers>
        <_>
          <internalNodes>
            0 -1 17 -5.7147815823554993e-04</internalNodes>
          <leafValues>
            8.7755101919174194e-01 -1.2574850022792816e-01</leafValues></_>
        <_>
          <internalNodes>
            0 -1 8 9.1770561411976814e-03</internalNodes>
          <leafValues>
            -1.3253679871559143e-01 9.4880211353302002e-01</leafValues></_>
        <_>
          <internalNodes>
            0 -1 54 -6.5901949710678309e-06</internalNodes>
          <leafValues>
            4.6792784333229065e-01 -4.0581876039505005e-01</leafValues></_>
        <_>
          <internalNodes>
            0 -1 74 -2.7348517323844135e-04</internalNodes>
          <leafValues>
            6.3854461908340454e-01 -3.1248784065246582e-01</leafValues></_>
        <_>
          <internalNodes>
            0 -1 62 -1.6940405475907028e-04</internalNodes>
          <leafValues>
            4.8031333088874817e-01 -4.2572098970413208e-01</leafValues></_>
        <_>
          <internalNodes>
            0 -1 30 -5.2004645112901926e-04</internalNodes>
          <leafValues>
            6.8306165933609009e-01 -3.0659705400466919e-01</leafValues></_>
        <_>
          <internalNodes>
            0 -1 5 -9.0643437579274178e-03</internalNodes>
          <leafValues>
            -6.5302836894989014e-01 4.0541428327560425e-01</leafValues></_></weakClassifiers></_>
    <!-- stage 23 -->
    <_>
      <maxWeakCount>8</maxWeakCount>
      <stageThreshold>-6.8049609661102295e-01</stageThreshold>
      <weakClassifiers>
        <_>
          <internalNodes>
            0 -1 66 6.1909272335469723e-03</internalNodes>
          <leafValues>
            -4.2857143282890320e-01 4.3939393758773804e-01</leafValues></_>
        <_>
          <internalNodes>
            0 -1 88 -1.8777107470668852e-04</internalNodes>
          <leafValues>
            5.4324066638946533e-01 -3.1982782483100891e-01</leafValues></_>
        <_>
          <internalNodes>
            0 -1 16 -1.4332826249301434e-03</internalNodes>
          <leafValues>
            -8.0441391468048096e-01 2.5809201598167419e-01</leafValues></_>
        <_>
          <internalNodes>
            0 -1 125 -9.3283073510974646e-04</internalNodes>
          <leafValues>
            6.1061501502990723e-01 -3.3416754007339478e-01</leafValues></_>
        <_>
          <internalNodes>
            0 -1 103 -1.7320524202659726e-03</internalNodes>
          <leafValues>
            8.7939810752868652e-01 -2.4698279798030853e-01</leafValues></_>
        <_>
          <internalNodes>
            0 -1 121 2.8412812389433384e-03</internalNodes>
          <leafValues>
            -2.4917086958885193e-01 7.1502399444580078e-01</leafValues></_>
        <_>
          <internalNodes>
            0 -1 56 1.3847170339431614e-04</internalNodes>
          <leafValues>
            5.6535422801971436e-01 -4.2951002717018127e-01</leafValues></_>
        <_>
          <internalNodes>
            0 -1 71 -5.2812905050814152e-03</internalNodes>
          <leafValues>
            -7.4921178817749023e-01 3.2429730892181396e-01</leafValues></_></weakClassifiers></_></stages>
  <features>
    <_>
      <rects>
        <_>
          0 4 42 39 -1.</_>
        <_>
          14 4 14 39 3.</_></rects>
      <tilted>0</tilted></_>
    <_>
      <rects>
        <_>
          0 7 6 6 -1.</_>
        <_>
          0 9 6 2 3.</_></rects>
      <tilted>0</tilted></_>
    <_>
      <rects>
        <_>
          0 8 12 33 -1.</_>
        <_>
          6 8 6 33 2.</_></rects>
      <tilted>0</tilted></_>
    <_>
      <rects>
        <_>
          0 9 14 24 -1.</_>
        <_>
          7 9 7 24 2.</_></rects>
      <tilted>0</tilted></_>
    <_>
      <rects>
        <_>
          0 9 16 36 -1.</_>
        <_>
          8 9 8 36 2.</_></rects>
      <tilted>0</tilted></_>
    <_>
      <rects>
        <_>
          0 11 26 15 -1.</_>
        <_>
          0 16 26 5 3.</_></rects>
      <tilted>0</tilted></_>
    <_>
      <rects>
        <_>
          0 15 1 8 -1.</_>
        <_>
          0 19 1 4 2.</_></rects>
      <tilted>0</tilted></_>
    <_>
      <rects>
        <_>
          0 17 10 18 -1.</_>
        <_>
          5 17 5 18 2.</_></rects>
      <tilted>0</tilted></_>
    <_>
      <rects>
        <_>
          0 18 9 14 -1.</_>
        <_>
          3 18 3 14 3.</_></rects>
      <tilted>0</tilted></_>
    <_>
      <rects>
        <_>
          0 21 4 26 -1.</_>
        <_>
          0 21 2 13 2.</_>
        <_>
          2 34 2 13 2.</_></rects>
      <tilted>0</tilted></_>
    <_>
      <rects>
        <_>
          0 22 6 20 -1.</_>
        <_>
          0 22 3 10 2.</_>
        <_>
          3 32 3 10 2.</_></rects>
      <tilted>0</tilted></_>
    <_>
      <rects>
        <_>
          0 22 8 14 -1.</_>
        <_>
          4 22 4 14 2.</_></rects>
      <tilted>0</tilted></_>
    <_>
      <rects>
        <_>
          0 25 45 14 -1.</_>
        <_>
          15 25 15 14 3.</_></rects>
      <tilted>0</tilted></_>
    <_>
      <rects>
        <_>
          0 26 39 8 -1.</_>
        <_>
          13 26 13 8 3.</_></rects>
      <tilted>0</tilted></_>
    <_>
      <rects>
        <_>
          1 0 43 48 -1.</_>
        <_>
          1 16 43 16 3.</_></rects>
      <tilted>0</tilted></_>
    <_>
      <rects>
        <_>
          1 1 14 49 -1.</_>
        <_>
          8 1 7 49 2.</_></rects>
      <tilted>0</tilted></_>
    <_>
      <rects>
        <_>
          1 11 26 1 -1.</_>
        <_>
          14 11 13 1 2.</_></rects>
      <tilted>0</tilted></_>
    <_>
      <rects>
        <_>
          1 13 3 4 -1.</_>
        <_>
          2 13 1 4 3.</_></rects>
      <tilted>0</tilted></_>
    <_>
      <rects>
        <_>
          1 19 48 25 -1.</_>
        <_>
          17 19 16 25 3.</_></rects>
      <tilted>0</tilted></_>
    <_>
      <rects>
        <_>
          1 20 2 30 -1.</_>
        <_>
          1 20 1 15 2.</_>
        <_>
          2 35 1 15 2.</_></rects>
      <tilted>0</tilted></_>
    <_>
      <rects>
        <_>
          2 1 8 16 -1.</_>
        <_>
          2 1 4 8 2.</_>
        <_>
          6 9 4 8 2.</_></rects>
      <tilted>0</tilted></_>
    <_>
      <rects>
        <_>
          2 6 3 6 -1.</_>
        <_>
          3 6 1 6 3.</_></rects>
      <tilted>0</tilted></_>
    <_>
      <rects>
        <_>
          2 7 6 38 -1.</_>
        <_>
          2 7 3 19 2.</_>
        <_>
          5 26 3 19 2.</_></rects>
      <tilted>0</tilted></_>
    <_>
      <rects>
        <_>
          2 11 4 22 -1.</_>
        <_>
          4 11 2 22 2.</_></rects>
      <tilted>0</tilted></_>
    <_>
      <rects>
        <_>
          2 19 6 12 -1.</_>
        <_>
          4 19 2 12 3.</_></rects>
      <tilted>0</tilted></_>
    <_>
      <rects>
        <_>
          2 31 45 9 -1.</_>
        <_>
          17 31 15 9 3.</_></rects>
      <tilted>0</tilted></_>
    <_>
      <rects>
        <_>
          3 0 26 3 -1.</_>
        <_>
          3 1 26 1 3.</_></rects>
      <tilted>0</tilted></_>
    <_>
      <rects>
        <_>
          3 4 3 12 -1.</_>
        <_>
          4 4 1 12 3.</_></rects>
      <tilted>0</tilted></_>
    <_>
      <rects>
        <_>
          3 6 38 34 -1.</_>
        <_>
          22 6 19 34 2.</_></rects>
      <tilted>0</tilted></_>
    <_>
      <rects>
        <_>
          3 7 16 37 -1.</_>
        <_>
          11 7 8 37 2.</_></rects>
      <tilted>0</tilted></_>
    <_>
      <rects>
        <_>
          3 26 2 10 -1.</_>
        <_>
          3 26 1 5 2.</_>
        <_>
          4 31 1 5 2.</_></rects>
      <tilted>0</tilted></_>
    <_>
      <rects>
        <_>
          3 43 46 6 -1.</_>
        <_>
          3 45 46 2 3.</_></rects>
      <tilted>0</tilted></_>
    <_>
      <rects>
        <_>
          4 10 2 2 -1.</_>
        <_>
          4 10 1 1 2.</_>
        <_>
          5 11 1 1 2.</_></rects>
      <tilted>0</tilted></_>
    <_>
      <rects>
        <_>
          5 11 4 12 -1.</_>
        <_>
          5 15 4 4 3.</_></rects>
      <tilted>0</tilted></_>
    <_>
      <rects>
        <_>
          5 26 38 24 -1.</_>
        <_>
          5 38 38 12 2.</_></rects>
      <tilted>0</tilted></_>
    <_>
      <rects>
        <_>
          5 29 5 3 -1.</_>
        <_>
          5 30 5 1 3.</_></rects>
      <tilted>0</tilted></_>
    <_>
      <rects>
        <_>
          5 38 11 12 -1.</_>
        <_>
          5 42 11 4 3.</_></rects>
      <tilted>0</tilted></_>
    <_>
      <rects>
        <_>
          6 10 3 3 -1.</_>
        <_>
          7 10 1 3 3.</_></rects>
      <tilted>0</tilted></_>
    <_>
      <rects>
        <_>
          7 31 3 3 -1.</_>
        <_>
          8 31 1 3 3.</_></rects>
      <tilted>0</tilted></_>
    <_>
      <rects>
        <_>
          7 35 9 2 -1.</_>
        <_>
          7 36 9 1 2.</_></rects>
      <tilted>0</tilted></_>
    <_>
      <rects>
        <_>
          7 41 14 6 -1.</_>
        <_>
          7 43 14 2 3.</_></rects>
      <tilted>0</tilted></_>
    <_>
      <rects>
        <_>
          8 9 42 6 -1.</_>
        <_>
          8 12 42 3 2.</_></rects>
      <tilted>0</tilted></_>
    <_>
      <rects>
        <_>
          8 42 22 6 -1.</_>
        <_>
          8 42 11 3 2.</_>
        <_>
          19 45 11 3 2.</_></rects>
      <tilted>0</tilted></_>
    <_>
      <rects>
        <_>
          9 1 4 3 -1.</_>
        <_>
          11 1 2 3 2.</_></rects>
      <tilted>0</tilted></_>
    <_>
      <rects>
        <_>
          9 2 10 2 -1.</_>
        <_>
          9 2 5 1 2.</_>
        <_>
          14 3 5 1 2.</_></rects>
      <tilted>0</tilted></_>
    <_>
      <rects>
        <_>
          9 28 33 22 -1.</_>
        <_>
          9 39 33 11 2.</_></rects>
      <tilted>0</tilted></_>
    <_>
      <rects>
        <_>
          10 0 6 4 -1.</_>
        <_>
          12 0 2 4 3.</_></rects>
      <tilted>0</tilted></_>
    <_>
      <rects>
        <_>
          10 12 2 2 -1.</_>
        <_>
          10 12 1 1 2.</_>
        <_>
          11 13 1 1 2.</_></rects>
      <tilted>0</tilted></_>
    <_>
      <rects>
        <_>
          10 15 2 28 -1.</_>
        <_>
          10 15 1 14 2.</_>
        <_>
          11 29 1 14 2.</_></rects>
      <tilted>0</tilted></_>
    <_>
      <rects>
        <_>
          10 33 27 16 -1.</_>
        <_>
          10 41 27 8 2.</_></rects>
      <tilted>0</tilted></_>
    <_>
      <rects>
        <_>
          10 37 20 12 -1.</_>
        <_>
          10 43 20 6 2.</_></rects>
      <tilted>0</tilted></_>
    <_>
      <rects>
        <_>
          11 0 28 22 -1.</_>
        <_>
          11 11 28 11 2.</_></rects>
      <tilted>0</tilted></_>
    <_>
      <rects>
        <_>
          11 47 9 1 -1.</_>
        <_>
          14 47 3 1 3.</_></rects>
      <tilted>0</tilted></_>
    <_>
      <rects>
        <_>
          12 2 29 48 -1.</_>
        <_>
          12 18 29 16 3.</_></rects>
      <tilted>0</tilted></_>
    <_>
      <rects>
        <_>
          12 11 1 3 -1.</_>
        <_>
          12 12 1 1 3.</_></rects>
      <tilted>0</tilted></_>
    <_>
      <rects>
        <_>
          12 22 23 12 -1.</_>
        <_>
          12 28 23 6 2.</_></rects>
      <tilted>0</tilted></_>
    <_>
      <rects>
        <_>
          13 13 10 9 -1.</_>
        <_>
          13 16 10 3 3.</_></rects>
      <tilted>0</tilted></_>
    <_>
      <rects>
        <_>
          13 34 23 6 -1.</_>
        <_>
          13 36 23 2 3.</_></rects>
      <tilted>0</tilted></_>
    <_>
      <rects>
        <_>
          14 0 30 14 -1.</_>
        <_>
          14 7 30 7 2.</_></rects>
      <tilted>0</tilted></_>
    <_>
      <rects>
        <_>
          14 1 6 2 -1.</_>
        <_>
          14 1 3 1 2.</_>
        <_>
          17 2 3 1 2.</_></rects>
      <tilted>0</tilted></_>
    <_>
      <rects>
        <_>
          14 3 4 6 -1.</_>
        <_>
          14 3 2 3 2.</_>
        <_>
          16 6 2 3 2.</_></rects>
      <tilted>0</tilted></_>
    <_>
      <rects>
        <_>
          14 7 36 15 -1.</_>
        <_>
          32 7 18 15 2.</_></rects>
      <tilted>0</tilted></_>
    <_>
      <rects>
        <_>
          14 27 6 2 -1.</_>
        <_>
          16 27 2 2 3.</_></rects>
      <tilted>0</tilted></_>
    <_>
      <rects>
        <_>
          14 27 6 6 -1.</_>
        <_>
          16 27 2 6 3.</_></rects>
      <tilted>0</tilted></_>
    <_>
      <rects>
        <_>
          15 0 1 12 -1.</_>
        <_>
          15 6 1 6 2.</_></rects>
      <tilted>0</tilted></_>
    <_>
      <rects>
        <_>
          15 0 5 9 -1.</_>
        <_>
          15 3 5 3 3.</_></rects>
      <tilted>0</tilted></_>
    <_>
      <rects>
        <_>
          15 4 34 8 -1.</_>
        <_>
          15 8 34 4 2.</_></rects>
      <tilted>0</tilted></_>
    <_>
      <rects>
        <_>
          15 16 2 2 -1.</_>
        <_>
          15 16 1 1 2.</_>
        <_>
          16 17 1 1 2.</_></rects>
      <tilted>0</tilted></_>
    <_>
      <rects>
        <_>
          15 21 28 1 -1.</_>
        <_>
          29 21 14 1 2.</_></rects>
      <tilted>0</tilted></_>
    <_>
      <rects>
        <_>
          15 36 23 12 -1.</_>
        <_>
          15 42 23 6 2.</_></rects>
      <tilted>0</tilted></_>
    <_>
      <rects>
        <_>
          15 40 4 4 -1.</_>
        <_>
          15 42 4 2 2.</_></rects>
      <tilted>0</tilted></_>
    <_>
      <rects>
        <_>
          16 18 20 4 -1.</_>
        <_>
          26 18 10 4 2.</_></rects>
      <tilted>0</tilted></_>
    <_>
      <rects>
        <_>
          16 24 24 26 -1.</_>
        <_>
          16 37 24 13 2.</_></rects>
      <tilted>0</tilted></_>
    <_>
      <rects>
        <_>
          17 12 3 37 -1.</_>
        <_>
          18 12 1 37 3.</_></rects>
      <tilted>0</tilted></_>
    <_>
      <rects>
        <_>
          17 35 2 12 -1.</_>
        <_>
          17 35 1 6 2.</_>
        <_>
          18 41 1 6 2.</_></rects>
      <tilted>0</tilted></_>
    <_>
      <rects>
        <_>
          17 38 2 10 -1.</_>
        <_>
          17 38 1 5 2.</_>
        <_>
          18 43 1 5 2.</_></rects>
      <tilted>0</tilted></_>
    <_>
      <rects>
        <_>
          17 49 3 1 -1.</_>
        <_>
          18 49 1 1 3.</_></rects>
      <tilted>0</tilted></_>
    <_>
      <rects>
        <_>
          18 11 6 18 -1.</_>
        <_>
          18 20 6 9 2.</_></rects>
      <tilted>0</tilted></_>
    <_>
      <rects>
        <_>
          19 31 12 3 -1.</_>
        <_>
          19 32 12 1 3.</_></rects>
      <tilted>0</tilted></_>
    <_>
      <rects>
        <_>
          20 2 12 2 -1.</_>
        <_>
          20 2 6 1 2.</_>
        <_>
          26 3 6 1 2.</_></rects>
      <tilted>0</tilted></_>
    <_>
      <rects>
        <_>
          20 22 2 2 -1.</_>
        <_>
          20 22 1 1 2.</_>
        <_>
          21 23 1 1 2.</_></rects>
      <tilted>0</tilted></_>
    <_>
      <rects>
        <_>
          20 44 18 6 -1.</_>
        <_>
          20 46 18 2 3.</_></rects>
      <tilted>0</tilted></_>
    <_>
      <rects>
        <_>
          21 14 14 6 -1.</_>
        <_>
          21 14 7 3 2.</_>
        <_>
          28 17 7 3 2.</_></rects>
      <tilted>0</tilted></_>
    <_>
      <rects>
        <_>
          21 19 3 8 -1.</_>
        <_>
          22 19 1 8 3.</_></rects>
      <tilted>0</tilted></_>
    <_>
      <rects>
        <_>
          21 36 28 4 -1.</_>
        <_>
          35 36 14 4 2.</_></rects>
      <tilted>0</tilted></_>
    <_>
      <rects>
        <_>
          21 38 1 12 -1.</_>
        <_>
          21 44 1 6 2.</_></rects>
      <tilted>0</tilted></_>
    <_>
      <rects>
        <_>
          21 40 3 9 -1.</_>
        <_>
          21 43 3 3 3.</_></rects>
      <tilted>0</tilted></_>
    <_>
      <rects>
        <_>
          22 0 7 6 -1.</_>
        <_>
          22 3 7 3 2.</_></rects>
      <tilted>0</tilted></_>
    <_>
      <rects>
        <_>
          22 19 3 11 -1.</_>
        <_>
          23 19 1 11 3.</_></rects>
      <tilted>0</tilted></_>
    <_>
      <rects>
        <_>
          22 21 24 4 -1.</_>
        <_>
          30 21 8 4 3.</_></rects>
      <tilted>0</tilted></_>
    <_>
      <rects>
        <_>
          22 38 6 10 -1.</_>
        <_>
          22 43 6 5 2.</_></rects>
      <tilted>0</tilted></_>
    <_>
      <rects>
        <_>
          23 0 5 9 -1.</_>
        <_>
          23 3 5 3 3.</_></rects>
      <tilted>0</tilted></_>
    <_>
      <rects>
        <_>
          23 2 20 6 -1.</_>
        <_>
          23 5 20 3 2.</_></rects>
      <tilted>0</tilted></_>
    <_>
      <rects>
        <_>
          23 26 27 9 -1.</_>
        <_>
          32 26 9 9 3.</_></rects>
      <tilted>0</tilted></_>
    <_>
      <rects>
        <_>
          23 40 10 8 -1.</_>
        <_>
          23 44 10 4 2.</_></rects>
      <tilted>0</tilted></_>
    <_>
      <rects>
        <_>
          24 31 18 16 -1.</_>
        <_>
          24 39 18 8 2.</_></rects>
      <tilted>0</tilted></_>
    <_>
      <rects>
        <_>
          25 8 15 6 -1.</_>
        <_>
          25 10 15 2 3.</_></rects>
      <tilted>0</tilted></_>
    <_>
      <rects>
        <_>
          25 8 16 3 -1.</_>
        <_>
          25 9 16 1 3.</_></rects>
      <tilted>0</tilted></_>
    <_>
      <rects>
        <_>
          25 19 12 3 -1.</_>
        <_>
          31 19 6 3 2.</_></rects>
      <tilted>0</tilted></_>
    <_>
      <rects>
        <_>
          25 26 23 24 -1.</_>
        <_>
          25 38 23 12 2.</_></rects>
      <tilted>0</tilted></_>
    <_>
      <rects>
        <_>
          26 34 22 2 -1.</_>
        <_>
          26 35 22 1 2.</_></rects>
      <tilted>0</tilted></_>
    <_>
      <rects>
        <_>
          28 11 22 14 -1.</_>
        <_>
          39 11 11 14 2.</_></rects>
      <tilted>0</tilted></_>
    <_>
      <rects>
        <_>
          28 19 6 1 -1.</_>
        <_>
          30 19 2 1 3.</_></rects>
      <tilted>0</tilted></_>
    <_>
      <rects>
        <_>
          29 1 8 4 -1.</_>
        <_>
          29 3 8 2 2.</_></rects>
      <tilted>0</tilted></_>
    <_>
      <rects>
        <_>
          29 32 2 8 -1.</_>
        <_>
          29 32 1 4 2.</_>
        <_>
          30 36 1 4 2.</_></rects>
      <tilted>0</tilted></_>
    <_>
      <rects>
        <_>
          29 48 3 2 -1.</_>
        <_>
          30 48 1 2 3.</_></rects>
      <tilted>0</tilted></_>
    <_>
      <rects>
        <_>
          30 8 20 22 -1.</_>
        <_>
          40 8 10 22 2.</_></rects>
      <tilted>0</tilted></_>
    <_>
      <rects>
        <_>
          30 23 7 3 -1.</_>
        <_>
          30 24 7 1 3.</_></rects>
      <tilted>0</tilted></_>
    <_>
      <rects>
        <_>
          31 19 4 10 -1.</_>
        <_>
          33 19 2 10 2.</_></rects>
      <tilted>0</tilted></_>
    <_>
      <rects>
        <_>
          32 38 18 6 -1.</_>
        <_>
          32 38 9 3 2.</_>
        <_>
          41 41 9 3 2.</_></rects>
      <tilted>0</tilted></_>
    <_>
      <rects>
        <_>
          33 38 14 6 -1.</_>
        <_>
          33 38 7 3 2.</_>
        <_>
          40 41 7 3 2.</_></rects>
      <tilted>0</tilted></_>
    <_>
      <rects>
        <_>
          34 46 8 4 -1.</_>
        <_>
          34 46 4 2 2.</_>
        <_>
          38 48 4 2 2.</_></rects>
      <tilted>0</tilted></_>
    <_>
      <rects>
        <_>
          35 0 2 3 -1.</_>
        <_>
          35 1 2 1 3.</_></rects>
      <tilted>0</tilted></_>
    <_>
      <rects>
        <_>
          35 40 14 4 -1.</_>
        <_>
          35 40 7 2 2.</_>
        <_>
          42 42 7 2 2.</_></rects>
      <tilted>0</tilted></_>
    <_>
      <rects>
        <_>
          37 2 4 3 -1.</_>
        <_>
          37 3 4 1 3.</_></rects>
      <tilted>0</tilted></_>
    <_>
      <rects>
        <_>
          37 4 12 37 -1.</_>
        <_>
          43 4 6 37 2.</_></rects>
      <tilted>0</tilted></_>
    <_>
      <rects>
        <_>
          37 11 9 22 -1.</_>
        <_>
          40 11 3 22 3.</_></rects>
      <tilted>0</tilted></_>
    <_>
      <rects>
        <_>
          38 4 6 4 -1.</_>
        <_>
          38 4 3 2 2.</_>
        <_>
          41 6 3 2 2.</_></rects>
      <tilted>0</tilted></_>
    <_>
      <rects>
        <_>
          38 8 12 25 -1.</_>
        <_>
          44 8 6 25 2.</_></rects>
      <tilted>0</tilted></_>
    <_>
      <rects>
        <_>
          38 14 12 26 -1.</_>
        <_>
          44 14 6 26 2.</_></rects>
      <tilted>0</tilted></_>
    <_>
      <rects>
        <_>
          39 7 4 1 -1.</_>
        <_>
          41 7 2 1 2.</_></rects>
      <tilted>0</tilted></_>
    <_>
      <rects>
        <_>
          39 45 10 5 -1.</_>
        <_>
          44 45 5 5 2.</_></rects>
      <tilted>0</tilted></_>
    <_>
      <rects>
        <_>
          40 7 10 6 -1.</_>
        <_>
          40 7 5 3 2.</_>
        <_>
          45 10 5 3 2.</_></rects>
      <tilted>0</tilted></_>
    <_>
      <rects>
        <_>
          40 22 10 17 -1.</_>
        <_>
          45 22 5 17 2.</_></rects>
      <tilted>0</tilted></_>
    <_>
      <rects>
        <_>
          41 8 8 31 -1.</_>
        <_>
          45 8 4 31 2.</_></rects>
      <tilted>0</tilted></_>
    <_>
      <rects>
        <_>
          42 3 6 6 -1.</_>
        <_>
          42 3 3 3 2.</_>
        <_>
          45 6 3 3 2.</_></rects>
      <tilted>0</tilted></_>
    <_>
      <rects>
        <_>
          42 4 8 29 -1.</_>
        <_>
          46 4 4 29 2.</_></rects>
      <tilted>0</tilted></_>
    <_>
      <rects>
        <_>
          42 8 8 4 -1.</_>
        <_>
          42 10 8 2 2.</_></rects>
      <tilted>0</tilted></_>
    <_>
      <rects>
        <_>
          42 9 6 30 -1.</_>
        <_>
          45 9 3 30 2.</_></rects>
      <tilted>0</tilted></_>
    <_>
      <rects>
        <_>
          42 10 6 40 -1.</_>
        <_>
          42 10 3 20 2.</_>
        <_>
          45 30 3 20 2.</_></rects>
      <tilted>0</tilted></_>
    <_>
      <rects>
        <_>
          44 7 2 36 -1.</_>
        <_>
          45 7 1 36 2.</_></rects>
      <tilted>0</tilted></_>
    <_>
      <rects>
        <_>
          44 14 6 36 -1.</_>
        <_>
          47 14 3 36 2.</_></rects>
      <tilted>0</tilted></_>
    <_>
      <rects>
        <_>
          44 24 2 26 -1.</_>
        <_>
          44 24 1 13 2.</_>
        <_>
          45 37 1 13 2.</_></rects>
      <tilted>0</tilted></_>
    <_>
      <rects>
        <_>
          46 1 3 32 -1.</_>
        <_>
          47 1 1 32 3.</_></rects>
      <tilted>0</tilted></_>
    <_>
      <rects>
        <_>
          46 22 4 7 -1.</_>
        <_>
          48 22 2 7 2.</_></rects>
      <tilted>0</tilted></_>
    <_>
      <rects>
        <_>
          47 37 3 5 -1.</_>
        <_>
          48 37 1 5 3.</_></rects>
      <tilted>0</tilted></_>
    <_>
      <rects>
        <_>
          49 28 1 9 -1.</_>
        <_>
          49 31 1 3 3.</_></rects>
      <tilted>0</tilted></_></features></cascade>
</opencv_storage>
